dense_12/kernel:0
(784, 128)
[[-3.23732942e-03 -4.83839028e-02 -7.55128860e-02 -1.79390162e-02
   5.72267249e-02 -6.21762872e-02  4.82336059e-02 -4.05660868e-02
  -2.13436224e-02 -3.39579210e-02 -1.14939883e-02  4.28438485e-02
  -6.87887892e-02  4.85107675e-02 -6.74962923e-02  7.55438432e-02
   4.26668823e-02 -9.47306305e-03 -4.34618816e-02  6.03132620e-02
  -5.74205369e-02  4.67109457e-02 -7.49417543e-02 -5.75624779e-02
  -7.78875202e-02 -9.42258537e-03 -4.99059856e-02 -6.26383200e-02
  -5.93138486e-03  3.94672453e-02  4.63824347e-02  6.29424676e-02
   5.85244074e-02 -7.56814778e-02  5.10657951e-02  2.12431774e-02
   4.48844805e-02  1.81840137e-02 -1.26655400e-02 -6.63716197e-02
   4.07246575e-02 -8.61606002e-03 -1.54972076e-06 -4.97924685e-02
  -1.73619092e-02 -7.10670501e-02 -7.16830939e-02  6.36146590e-02
   4.04716209e-02  1.86695606e-02  7.10210130e-02 -6.97542354e-02
   7.16380551e-02 -6.37957752e-02 -7.48103708e-02  2.37819701e-02
  -5.86471483e-02 -3.85670103e-02  3.90950218e-02  2.99780220e-02
   4.09909710e-02  3.42501774e-02 -7.50869513e-03 -4.55387197e-02
  -8.01380873e-02 -3.77164930e-02 -6.66628927e-02  7.78767243e-02
   3.88380364e-02  3.20559219e-02  6.43229410e-02  4.01387140e-02
   5.28221205e-02  3.24226320e-02 -4.81971912e-02 -3.18694785e-02
   5.75004593e-02 -3.27996910e-02  7.20773861e-02  3.60514075e-02
   5.01354113e-02  1.10253096e-02 -3.16539928e-02 -1.72977448e-02
  -3.29390988e-02 -5.77402376e-02  6.19335100e-02 -4.60118055e-04
  -5.19071668e-02 -5.79694659e-03 -5.85086271e-02  5.16906753e-02
  -8.07839856e-02  4.20041382e-03  3.78323868e-02  1.21722966e-02
   4.55983952e-02 -7.31857568e-02  5.20581380e-02 -5.16538918e-02
   7.25417212e-02 -2.33842209e-02 -1.75692141e-04 -5.87637164e-02
  -3.99286002e-02 -5.56838810e-02 -7.30426535e-02  3.29460949e-03
  -5.40173426e-02 -4.12982553e-02 -1.21878088e-02 -5.55622615e-02
   6.11852035e-02  1.71074718e-02  3.71310264e-02  1.37705505e-02
   7.98296407e-02  4.33898494e-02  7.65298977e-02 -1.31480917e-02
   6.16870299e-02  5.53724244e-02  4.50100824e-02 -1.75285861e-02
   5.56051731e-03  6.27707168e-02  3.81541774e-02  5.29445186e-02]
 [ 5.38220927e-02 -5.04281558e-02 -7.54716247e-02 -3.01909149e-02
  -9.22154635e-03  5.85113838e-02 -3.96452732e-02  1.38859823e-02
  -6.12103604e-02 -7.03291446e-02  6.19266257e-02  5.18177673e-02
  -3.00325342e-02 -5.36254719e-02 -4.41843979e-02  6.08506128e-02
   9.47259367e-03 -4.35942709e-02  6.87118620e-03  6.88453019e-03
  -3.73952053e-02 -4.92122024e-02  7.52096400e-02  5.73850945e-02
   2.41379514e-02  2.63678655e-02  2.83933058e-02  4.89309505e-02
   3.92752737e-02  5.70887551e-02  5.59178516e-02 -5.28789163e-02
  -2.12746114e-03  2.03508511e-02 -9.67851281e-03  5.88907078e-02
   8.06714594e-03 -7.53115565e-02  3.65867689e-02 -6.66503385e-02
   4.28486615e-03 -1.60665289e-02 -1.24094263e-02  3.82190198e-03
  -3.53092402e-02  3.63421962e-02 -4.96556312e-02  6.71336576e-02
   3.66908237e-02 -7.18917549e-02  4.66193780e-02 -1.26713812e-02
  -6.93787783e-02 -4.83083688e-02  4.96249273e-02 -4.78831194e-02
   1.14142001e-02  6.38981834e-02  5.23809567e-02 -7.61969984e-02
  -6.80334121e-02 -6.21464886e-02  3.41013297e-02  5.10491058e-02
  -5.74312508e-02 -5.15956655e-02 -7.20212236e-02  1.38634369e-02
   6.27692267e-02  4.38820869e-02 -4.13635224e-02 -1.19885802e-03
   4.87645790e-02 -5.48652709e-02  4.57153991e-02 -5.13109863e-02
  -3.85213532e-02  6.47989884e-02 -6.88868538e-02  6.83876500e-02
  -7.04934821e-02  6.07748404e-02  7.39303231e-03 -1.96553320e-02
   5.49981818e-02  6.34056404e-02  7.03108832e-02 -7.24053383e-02
   2.48559788e-02 -7.55615234e-02 -4.32606079e-02  4.62276861e-02
  -6.29073530e-02  6.02540448e-02 -3.98425460e-02 -3.19887400e-02
  -2.41749845e-02  6.82046190e-02  3.43728438e-02 -7.63678178e-02
   3.41065750e-02 -7.70920143e-02 -3.90066840e-02  7.44626448e-02
  -1.78728849e-02 -7.76003078e-02  7.29323998e-02  3.33611965e-02
   4.97800484e-02  2.50126198e-02  4.14226353e-02 -3.71381603e-02
  -7.97015056e-02 -3.26586552e-02  3.83809954e-02 -5.36618456e-02
   1.02592781e-02 -5.46750017e-02 -6.88460916e-02  6.95447624e-03
   3.27035785e-03  5.69443181e-02 -5.48931733e-02 -1.70792788e-02
  -1.64336860e-02  1.28882378e-03 -5.96513078e-02  3.42548639e-03]
 [-7.14484602e-03 -6.01648912e-02 -7.62855932e-02 -1.57196596e-02
   3.48709971e-02  2.35807747e-02  7.79327825e-02  5.91761395e-02
   3.69792432e-03 -6.03013039e-02  2.43258998e-02 -4.59971279e-03
   1.38146654e-02  7.88031444e-02 -5.18914647e-02 -6.89005256e-02
   5.20877615e-02  3.19762528e-03  6.50000498e-02 -2.42000446e-02
   4.80168834e-02  7.83747509e-02  8.01709518e-02 -4.02609855e-02
  -6.48396388e-02  1.89576447e-02 -2.13689171e-02  4.65180054e-02
   1.92353651e-02  3.06951776e-02 -1.43023357e-02 -3.86416763e-02
  -2.18605995e-03 -2.16740966e-02 -2.41336226e-03 -4.02441621e-03
   4.60689142e-02  2.86177844e-02 -3.50710303e-02  4.01304364e-02
  -1.44499838e-02 -6.58532381e-02  3.13290134e-02  1.64495483e-02
  -7.70884752e-03  8.01611766e-02  1.18027031e-02  5.48233092e-03
  -6.44662678e-02  6.12141937e-03 -3.87817025e-02  8.08008686e-02
   6.07448891e-02  1.06340349e-02  1.63668916e-02  4.87672016e-02
  -5.60764223e-03  7.47771561e-03  7.13987276e-02  6.51865974e-02
   5.28322980e-02 -4.86180149e-02  3.05926278e-02  7.74055347e-02
   5.88921234e-02 -6.29067346e-02 -1.44511461e-03 -3.29678357e-02
   5.20094559e-02  5.36881611e-02 -2.55423784e-03  6.41242489e-02
   3.40066105e-03 -3.87652665e-02 -2.64530554e-02  1.98104084e-02
   1.71930268e-02  2.68605500e-02 -4.28341329e-03  4.98469695e-02
   6.47347420e-03  3.06772366e-02  7.72680566e-02  2.63586864e-02
   6.51334450e-02  1.36409104e-02  6.30202070e-02 -1.29291788e-02
  -3.32986191e-02 -5.09696454e-02  1.74877793e-02  8.23055208e-03
   1.90659165e-02  2.78481096e-03 -1.98029801e-02  6.92330077e-02
  -3.37280333e-04  4.23951447e-02  2.06986740e-02 -4.47179824e-02
  -6.82036281e-02 -3.18710469e-02 -8.01541805e-02  4.49821576e-02
  -5.32657653e-03  3.56122106e-02  2.29136422e-02 -1.10187903e-02
  -7.83850923e-02  3.16592529e-02  1.77870616e-02 -1.28597990e-02
  -1.61494538e-02 -6.82616085e-02 -5.32872081e-02  2.74055824e-02
  -4.10773344e-02  8.42958689e-04 -8.10987353e-02 -1.54537931e-02
   7.37546459e-02  5.42811379e-02  4.51102182e-02  5.33030704e-02
   1.40010864e-02  3.22396308e-02 -3.71355899e-02  5.00832126e-02]
 [ 5.16165122e-02 -6.32064044e-02  7.39349425e-03  3.45813483e-03
  -6.90650940e-02 -2.11492740e-02 -4.12895903e-02  7.20615610e-02
  -7.58100227e-02 -5.88367209e-02 -2.79974490e-02 -2.38394737e-03
  -7.81488344e-02  2.80924365e-02 -5.28578982e-02  4.02952954e-02
   7.56473839e-03 -2.98868790e-02 -1.19348094e-02 -5.38974255e-02
  -6.47079796e-02  3.21051329e-02 -2.04651058e-03  5.80436811e-02
  -5.88254444e-02 -3.36786918e-02 -5.62809333e-02 -5.44487238e-02
   1.31065398e-03  6.62473366e-02  7.63989761e-02 -2.49653980e-02
  -4.12849896e-02 -7.38245025e-02  5.56486025e-02  3.55061665e-02
  -4.23608162e-02 -3.16010453e-02  7.67796859e-02 -3.43388319e-03
   7.39218816e-02 -6.12209737e-03  2.25900933e-02 -1.96101964e-02
   8.77611339e-04 -5.83666563e-03 -5.14579006e-02  5.78731671e-02
   8.04507732e-03 -4.50698398e-02 -1.96297280e-02  6.48715124e-02
   5.80180511e-02 -7.03827441e-02 -7.50131309e-02 -6.12149052e-02
  -7.12035000e-02 -1.55268759e-02 -2.88730860e-02  4.39408422e-03
   1.08929574e-02 -2.31027715e-02  2.85750479e-02 -5.74340932e-02
  -2.25353092e-02  2.80000269e-04 -1.27389729e-02  1.01480260e-02
   4.91856560e-02  2.34756917e-02 -5.08108586e-02 -6.00899160e-02
  -5.48981279e-02 -3.59050184e-03 -7.22887889e-02  5.96091673e-02
  -3.37454118e-02 -2.95422114e-02  6.67906031e-02 -2.14457884e-02
  -3.48302126e-02 -4.69069593e-02 -4.20905650e-03  7.34299943e-02
   7.10230991e-02  3.95154208e-02  4.38442081e-03 -4.79411930e-02
   3.80858183e-02  5.79440817e-02  3.56298313e-02  9.37913358e-03
   9.54171270e-03 -6.18199036e-02  3.13286483e-03  5.02455309e-02
   1.54369548e-02 -7.95517713e-02  7.36485049e-02 -1.44144818e-02
   2.37312242e-02  3.92076522e-02 -2.43643634e-02 -4.79226857e-02
  -6.77634925e-02  8.03532973e-02  5.49128279e-02 -1.95059255e-02
  -2.39247829e-03  1.49217248e-02 -1.48418769e-02  3.69951129e-02
  -3.52595039e-02 -1.21492073e-02  5.04153594e-02 -2.06966400e-02
   4.58571389e-02  7.46520385e-02  3.69333476e-02  1.52851045e-02
   9.30243731e-03  3.29056084e-02  7.97878131e-02 -1.93402320e-02
  -2.79368237e-02  2.96216160e-02 -4.77112979e-02 -3.17445919e-02]
 [ 3.40717062e-02 -5.54920658e-02 -5.98370321e-02  7.01186880e-02
   2.02322900e-02  5.62122539e-02  1.69062540e-02 -4.89101373e-02
  -7.33610764e-02 -7.81256109e-02  4.71407250e-02  2.05081329e-02
  -5.96535876e-02  9.70736146e-03  5.91169521e-02  3.80190983e-02
   3.75041738e-02 -3.03495675e-02  3.63414735e-03  1.64727867e-03
  -6.26727641e-02  6.06843606e-02 -2.16039382e-02  2.41690129e-03
  -3.88806388e-02 -1.60602480e-02 -5.29350936e-02  7.06513599e-02
  -6.28312975e-02 -6.07570112e-02 -2.72920653e-02  5.36956266e-02
   5.57849184e-02  6.28977045e-02  2.89518312e-02 -1.31019205e-03
  -3.72103602e-03 -7.08221495e-02  2.38035321e-02  3.28890234e-03
   5.87998405e-02  3.15061212e-03 -1.66892409e-02  5.26397452e-02
  -4.51026596e-02 -5.45080751e-03  3.55568305e-02 -5.76823801e-02
  -1.53431818e-02 -1.09758377e-02 -5.27675077e-02  5.21222875e-02
   3.25286463e-02  1.57282650e-02 -4.67815511e-02 -7.52788037e-03
   3.75316367e-02 -1.92038976e-02 -3.57880369e-02 -5.61714768e-02
  -3.02563943e-02 -6.00671023e-03  6.03148267e-02  7.29957446e-02
  -7.10835457e-02  6.26796409e-02 -5.89387864e-02 -4.96974587e-02
  -5.94497249e-02 -1.44411102e-02 -6.16079569e-03 -4.53929082e-02
  -6.07413277e-02  3.07388678e-02  6.96704015e-02  3.76863629e-02
  -7.94747621e-02 -6.88977242e-02 -1.18593127e-02 -7.59997144e-02
  -3.76800187e-02  2.25465000e-03 -7.22098276e-02 -1.43665820e-03
   7.15113953e-02 -5.52847162e-02 -6.32682443e-02  6.15402684e-02
   6.67177364e-02  4.85534221e-03  4.05795053e-02  1.05528161e-02
  -7.35246390e-02  4.12164629e-03 -4.42834496e-02 -2.92065553e-02
   1.34521872e-02 -5.05985655e-02 -2.64270045e-02  1.12545788e-02
  -7.13003427e-03 -5.86914718e-02 -3.51996496e-02  2.89838761e-03
   1.43666193e-02  3.12814787e-02  5.77455983e-02  7.23353699e-02
  -7.20432326e-02 -2.03278027e-02  2.58365273e-02  3.81671116e-02
   1.21896043e-02  3.51344049e-02 -1.83146819e-02  3.80290151e-02
  -2.69813575e-02  6.64810911e-02 -7.76004791e-02  1.48765072e-02
  -9.45907831e-03 -5.84317744e-02 -7.00424314e-02  1.52037740e-02
   6.27538636e-02  6.93043694e-02 -6.01860099e-02  2.89662033e-02]
 [ 3.27571109e-02  7.68882856e-02  1.79720894e-02  5.53295761e-03
  -1.85340643e-04 -2.18347199e-02 -2.90413499e-02 -1.69715658e-02
   4.97942492e-02  6.36895001e-03  4.19892669e-02 -7.43033364e-02
   4.03863192e-03 -7.10908622e-02 -2.05213800e-02  6.96981475e-02
  -2.38120817e-02 -5.63983731e-02 -1.41929984e-02 -2.03095675e-02
  -5.14862910e-02 -6.00366592e-02 -3.59208882e-03 -5.66681810e-02
  -2.70245187e-02 -7.74029791e-02  5.33897653e-02 -3.54890302e-02
   7.74141178e-02  4.30657566e-02 -1.23538449e-02 -7.78995678e-02
  -1.53793246e-02  3.30449790e-02  8.53857398e-03 -1.65987611e-02
  -2.18644440e-02 -2.30885968e-02 -1.83048025e-02  2.66561657e-02
  -1.82667226e-02  4.04728577e-02  7.42365792e-02  2.84799039e-02
   4.72174212e-02  5.20453975e-02  2.21623108e-02 -1.03980303e-03
   7.92859867e-02  4.10727337e-02  1.85097903e-02 -5.17173260e-02
  -6.41104132e-02 -3.54540832e-02  7.59020448e-03  2.08292603e-02
   6.58376887e-02  7.71613196e-02 -4.36838269e-02  2.72136256e-02
   4.73644510e-02  2.04530954e-02 -3.54015827e-02  6.96735010e-02
  -5.83581924e-02  1.68184191e-02 -4.93884310e-02  3.99766564e-02
   2.15583965e-02 -2.52821296e-03  4.87969145e-02  4.38718498e-03
  -4.47304174e-02 -3.24552506e-03 -3.87812965e-02  7.07237795e-02
  -1.34975538e-02  8.64843279e-03 -1.90422311e-02 -2.95724571e-02
   2.38827392e-02 -5.32770157e-02 -2.60617435e-02  2.27926448e-02
   4.73183766e-02  2.73407623e-02  5.53754792e-02  5.71300760e-02
  -8.07921588e-03  7.21232072e-02 -1.30451173e-02  4.25751805e-02
  -3.41394097e-02  1.48740709e-02 -7.92011097e-02 -5.07674664e-02
  -4.31377441e-03  5.37706837e-02 -3.66172045e-02  7.68159404e-02
  -7.32632875e-02  9.47596133e-03  5.50623238e-03  3.04149315e-02
   3.98744345e-02 -2.02926248e-03  7.18660280e-02 -4.84238975e-02
  -4.85234670e-02 -7.76521713e-02 -3.46536934e-02 -3.66459042e-02
  -1.12601519e-02  3.62887681e-02  7.75795206e-02 -4.67442684e-02
  -5.93186915e-03  5.66801652e-02 -6.70413226e-02  7.95512423e-02
   4.83223274e-02  2.56729275e-02  5.24456576e-02 -4.76381928e-03
   8.04602429e-02  1.13249719e-02  8.10812935e-02  5.75204119e-02]
 [ 4.66374978e-02  4.28212062e-02 -3.26327421e-02  3.79654914e-02
   5.96372262e-02 -5.95014170e-02 -2.98206843e-02 -1.75095350e-02
  -5.17356396e-02  1.31013095e-02 -5.35421446e-02  4.96361032e-02
   5.50507382e-02 -3.90840955e-02  1.75823420e-02 -4.77851331e-02
  -5.11570349e-02  2.11470500e-02 -7.66059309e-02 -3.91172431e-02
   4.33087349e-03 -1.89737342e-02  1.02462992e-02  1.35816187e-02
  -3.46020982e-02 -1.41125321e-02 -1.98431052e-02 -5.34778051e-02
  -1.51423141e-02 -8.95320624e-03  3.18558663e-02 -1.60133094e-02
  -3.35144550e-02 -4.27255370e-02  5.75639829e-02 -6.29556775e-02
  -3.87210771e-02  6.95701167e-02 -6.53452426e-03  7.57220015e-02
  -6.28449693e-02  1.93337202e-02  4.70041111e-02 -4.60887961e-02
   3.11971456e-03  7.46950135e-02  1.39958635e-02 -3.53819728e-02
  -5.11127338e-02  3.90668288e-02 -4.49972078e-02 -2.92228907e-03
  -2.78956704e-02  6.97624758e-02 -6.47639632e-02  1.38812512e-03
  -7.40145743e-02  7.02711865e-02 -5.72319701e-02  3.70077044e-02
   7.41506591e-02  4.64604422e-02 -3.68259810e-02  3.88395041e-02
  -7.29997009e-02  2.55478173e-03  4.45190296e-02  5.02581671e-02
   2.01441348e-03 -7.36044720e-02  5.10249361e-02  2.23712996e-02
   3.83488089e-03 -3.78365815e-02 -4.56620976e-02  4.41746339e-02
  -3.10035683e-02  7.21081123e-02 -4.24077511e-02  5.53134903e-02
   4.94325981e-02 -5.21931797e-02 -1.38498172e-02 -1.09027624e-02
   7.42924958e-03 -4.90579419e-02 -2.11881809e-02 -2.38904953e-02
   7.40567520e-02  4.40984145e-02 -1.94576383e-03 -6.59762844e-02
  -7.13502839e-02 -1.91465616e-02 -4.88735102e-02  5.04234955e-02
   1.24422461e-02  2.33516097e-03  2.41214707e-02  6.78234920e-02
   3.63193974e-02 -2.75284797e-03 -8.07467401e-02  8.01770315e-02
   1.06182322e-02  4.24803868e-02 -1.64976418e-02  4.27611992e-02
  -4.02696505e-02  9.87812132e-03 -3.57932188e-02  2.68587694e-02
  -4.98652160e-02  2.84626484e-02  7.53433928e-02  4.39729169e-02
  -1.64866969e-02  2.22156867e-02  1.85139850e-02 -3.92923690e-02
   2.69336253e-03  4.77510914e-02  6.09118715e-02  7.49880448e-02
  -5.06760553e-02 -9.35366750e-03  1.52542070e-02 -9.21612978e-03]
 [ 7.86387548e-02 -6.72845393e-02  6.02976307e-02  1.05732530e-02
   2.28869542e-02  6.13429770e-02  5.78213856e-02 -3.77684534e-02
  -2.30629742e-02  6.72093853e-02  6.60742447e-02 -1.95716359e-02
   3.84297445e-02 -2.64208354e-02  9.82283056e-03  2.75230631e-02
  -5.55843636e-02  2.55131349e-02  3.43101099e-02  4.78021801e-03
  -1.77761912e-02  5.47736511e-02  1.97755992e-02  2.31069326e-03
  -5.78565598e-02  6.38976172e-02 -7.77394623e-02 -1.40843540e-02
   2.92004645e-02 -6.04102388e-02 -6.59875199e-02 -1.66094750e-02
   4.39492837e-02 -1.73329562e-02 -3.21249776e-02 -3.43952179e-02
   4.01591137e-02 -6.37489408e-02  1.18856877e-02 -2.82230489e-02
  -6.81316331e-02 -8.01008791e-02 -4.28219177e-02  7.94204846e-02
  -1.37599930e-02 -3.38260084e-03 -6.04113042e-02  8.07927474e-02
   5.40805683e-02  9.19267535e-04 -7.51131102e-02  1.56305730e-03
  -2.60145776e-02  6.04728684e-02  1.67823955e-02  4.42988053e-02
  -5.74519485e-03  4.45794389e-02  2.78058872e-02 -1.89075209e-02
   6.70436397e-02  4.81755510e-02  5.18293902e-02 -5.99384829e-02
   3.90323848e-02  1.17537230e-02 -5.78069761e-02 -7.80014992e-02
  -7.84368217e-02 -4.17311229e-02  4.73523214e-02 -5.49476147e-02
  -6.38239309e-02  7.06785694e-02  4.89808992e-02 -5.37261888e-02
   7.23147616e-02 -1.99082755e-02 -5.89174926e-02 -5.74264936e-02
   4.52004895e-02  7.10620657e-02  1.40417516e-02 -7.57424161e-02
   9.85145569e-03 -6.53483495e-02  7.39941821e-02 -4.81393710e-02
  -4.23992984e-02  1.42196268e-02 -9.38449055e-03  4.40528616e-02
   6.60837665e-02  7.57142231e-02  8.02170113e-02  1.41727477e-02
   2.43977606e-02 -2.31960379e-02 -2.41309106e-02  4.74846885e-02
   7.62538537e-02 -1.88449770e-03  4.82132211e-02 -3.08687426e-02
  -5.12305573e-02 -2.51940340e-02 -5.16527742e-02 -5.56133911e-02
  -7.79733434e-02  1.78764984e-02  1.28315836e-02 -5.97612634e-02
   6.67302683e-02  5.07289246e-02  3.77714708e-02  6.87636808e-02
  -4.94062230e-02  2.41040662e-02 -8.59238207e-04 -8.53948295e-03
  -5.98174632e-02  2.30145678e-02 -8.41560215e-03 -1.14626437e-02
  -1.09620914e-02 -4.81160097e-02 -3.63674127e-02 -1.04480982e-03]
 [ 6.18669167e-02 -4.97638658e-02  4.53662053e-02  1.25527382e-02
   1.86769888e-02  2.51100063e-02 -3.96176577e-02 -1.73808932e-02
  -2.69300342e-02 -1.15104839e-02 -1.41554624e-02  7.71343336e-02
   7.71828070e-02  6.29166737e-02 -5.10832816e-02 -2.27286704e-02
  -2.12930143e-03  1.69354603e-02 -2.83516943e-03  3.70149165e-02
  -3.98450345e-03  6.77440390e-02  4.80137542e-02  3.17166299e-02
   2.50055045e-02 -7.51542449e-02  3.99929583e-02 -9.13504511e-03
  -2.85784677e-02 -2.19766423e-02 -7.83268064e-02  6.69503286e-02
   2.68566832e-02 -4.42276187e-02  9.09946859e-04  7.89947733e-02
  -6.53482154e-02  1.87143087e-02  5.99518195e-02  4.44899425e-02
   4.18881476e-02 -2.57604346e-02  6.79148510e-02 -9.80450213e-03
   4.09994572e-02  6.46988526e-02 -7.00100511e-03  6.25942424e-02
  -3.51730622e-02 -3.73969637e-02 -2.42118984e-02 -3.77083123e-02
  -1.40571818e-02  6.58369288e-02 -3.82132158e-02  7.07539245e-02
  -1.44598484e-02  1.82753056e-03  3.25541347e-02  6.07536063e-02
  -4.66394536e-02  4.94840220e-02 -4.50929701e-02  2.34033912e-03
  -5.18705808e-02 -1.18675083e-02  6.90940693e-02 -3.54334712e-02
   5.46448752e-02  2.21652910e-02  6.52518868e-03  6.75318316e-02
   1.56941488e-02 -2.19584443e-02  5.72181493e-03 -1.19772181e-02
   4.24254239e-02  4.53613624e-02 -6.23997822e-02  3.10230032e-02
   5.41731343e-02 -5.11109829e-04  5.14936969e-02 -2.37105042e-03
  -7.62734041e-02 -7.46519864e-02  7.36280009e-02 -7.16764033e-02
  -2.91522928e-02 -1.76669881e-02  2.63841674e-02  1.48793906e-02
   3.04628685e-02  7.77213648e-02  6.42715767e-02  9.07645375e-03
  -3.05686295e-02  9.21688229e-03  3.86232659e-02 -3.62367071e-02
   1.73467994e-02 -7.23792911e-02 -1.13825426e-02 -3.91815603e-02
   2.97922194e-02 -7.27098808e-02 -2.63442099e-03 -4.57138084e-02
   5.71787357e-03 -2.19347551e-02  4.62343916e-02 -6.75495714e-02
  -7.07852915e-02  3.22662219e-02  6.52862713e-02 -6.46196231e-02
  -2.74099410e-03  5.14160022e-02  1.09612942e-04 -6.93856254e-02
  -8.28497112e-03  7.78499469e-02 -3.49562392e-02 -2.84468383e-03
  -2.04445273e-02 -5.04550561e-02 -3.57839577e-02  6.18843511e-02]
 [-7.05182329e-02 -4.55243699e-02  3.99484187e-02 -2.45218910e-02
   3.16343457e-03 -6.17537498e-02  7.38825127e-02  2.04786211e-02
  -3.58178578e-02  3.15903723e-02  5.02263382e-02 -6.89175427e-02
  -5.07419184e-02 -2.37495974e-02  6.19321689e-02 -1.17084533e-02
  -1.52111575e-02  1.74557418e-03 -1.32942125e-02  7.87439942e-03
   2.15967074e-02  2.36320049e-02  7.92656615e-02  6.92640916e-02
  -7.58335590e-02  2.76380256e-02 -1.72503218e-02 -2.51159854e-02
   2.27704793e-02 -7.08756447e-02  7.18558207e-02  7.46338442e-02
  -8.46862793e-03 -1.47157311e-02  2.94542834e-02  4.82184067e-02
  -2.93952003e-02  5.52550778e-02  3.06480899e-02 -7.91359767e-02
   3.70489731e-02  6.70194849e-02 -2.42825225e-02 -7.84699097e-02
   5.60384989e-03 -7.07067028e-02 -6.08864240e-02 -1.00414157e-02
  -5.58589473e-02  7.62828439e-03  3.52372602e-02 -1.68822184e-02
   6.38038591e-02 -6.12327345e-02  2.44613439e-02  5.97067177e-04
   5.83788753e-03  3.72739360e-02  5.74232414e-02  6.27370849e-02
  -6.84649497e-02 -5.71230352e-02  5.42833656e-03  5.65819368e-02
  -7.66495541e-02  6.93886057e-02  4.77362052e-02  3.93702239e-02
   6.15207180e-02 -6.92567527e-02  3.25894058e-02 -6.39743432e-02
  -6.83687627e-04  1.54604688e-02  3.35590243e-02  1.31736770e-02
   2.48063952e-02  3.93023863e-02 -5.89298308e-02  8.08881596e-02
  -2.87361145e-02 -1.83562264e-02 -5.85270151e-02  8.09770301e-02
  -1.20384619e-02  3.55253443e-02 -6.94825873e-02 -1.44839585e-02
  -3.97758856e-02 -1.10684857e-02 -4.82135341e-02  6.83949962e-02
  -6.23486340e-02 -8.31723213e-04 -1.55000761e-02  1.08428895e-02
   6.82012066e-02 -8.08021277e-02  3.01833749e-02  3.96640301e-02
   3.94210890e-02 -7.34290704e-02  5.34014776e-02  9.48112458e-03
  -6.91770017e-02  5.60995117e-02 -4.89717685e-02 -5.64370491e-02
  -5.67142628e-02  2.73923352e-02  2.49225423e-02 -8.04999843e-02
   3.51938307e-02  3.10954079e-02 -3.77593450e-02 -6.81805983e-02
  -1.92688368e-02 -4.93670255e-03 -4.04235460e-02  4.93938997e-02
   3.95109877e-02  6.94507137e-02  2.75964141e-02  5.85440025e-02
   3.47595289e-02 -2.50962414e-02 -7.40928426e-02  1.90483779e-02]
 [-4.83950824e-02 -3.66965123e-02  6.70896098e-02  1.13003924e-02
   7.26488903e-02 -4.25376445e-02  6.15341440e-02 -5.92417791e-02
  -1.44826844e-02 -1.20619163e-02 -4.93166484e-02  1.32829398e-02
   7.29501918e-02 -5.39416820e-03  8.26018304e-03  1.15116239e-02
   4.42508087e-02  1.71688125e-02  6.53962865e-02 -1.22776926e-02
   4.33207527e-02 -6.52136207e-02 -1.12583488e-02 -5.01682311e-02
   6.23615459e-02  1.86846256e-02  5.36726415e-03 -2.06556171e-03
   6.30312786e-02  3.72357816e-02 -4.16205451e-02  4.89582494e-02
   3.20847332e-03  4.00658473e-02 -4.12706770e-02 -1.64763704e-02
  -3.15599144e-04  2.62466744e-02  7.53906593e-02 -7.02208132e-02
  -1.89649351e-02  7.48813823e-02  2.62112692e-02 -5.18706180e-02
  -3.33235636e-02  2.39777118e-02 -4.43238094e-02 -5.09684086e-02
  -3.01940851e-02 -1.50658116e-02  4.61613759e-02 -3.94654870e-02
   4.12402004e-02  7.28809014e-02 -2.55692750e-02  5.01590967e-03
   6.55532405e-02 -3.11869904e-02  2.68842950e-02 -1.53404772e-02
   3.80300656e-02  3.07701528e-03  7.52396360e-02 -3.37104090e-02
  -6.54489547e-03 -1.65462345e-02 -3.96801978e-02 -1.88882798e-02
  -4.65361103e-02 -1.99843347e-02  4.52966169e-02 -9.88701731e-03
  -7.97139630e-02 -4.35926653e-02  2.29639187e-02  7.53655955e-02
   7.31214508e-02  7.88330212e-02 -4.65979539e-02  3.71299237e-02
  -1.89661346e-02  7.08656684e-02  1.16864666e-02 -1.11620873e-02
  -5.52895889e-02  5.42559847e-02  1.85083747e-02 -3.97991687e-02
  -2.87712701e-02  5.98725900e-02  1.17471069e-02  7.11313710e-02
  -6.79529682e-02  2.46985257e-02 -7.61449262e-02  6.33639097e-03
  -5.53725362e-02  7.20809624e-02  7.66598061e-02 -6.07328974e-02
   9.06772912e-03 -5.01694456e-02 -1.93349347e-02  4.38935682e-02
  -6.03213795e-02 -8.12237710e-03 -1.75322369e-02 -4.34342660e-02
  -3.76849696e-02 -2.56220661e-02  2.45516151e-02  4.64157537e-02
   4.52063754e-02  5.97381219e-02  3.29640508e-03  2.59782225e-02
  -9.23879445e-03 -6.43525049e-02 -7.10561275e-02 -3.73313129e-02
   7.13401064e-02  6.72686175e-02  4.47752103e-02 -3.46436761e-02
   4.22762707e-02 -3.76748964e-02 -7.00872391e-02  5.99684194e-02]
 [ 3.16471606e-03 -7.14488104e-02  4.99571785e-02  6.73967078e-02
  -5.20963967e-03  3.86358052e-03  2.80008540e-02  1.27677619e-03
   1.54711232e-02  6.73442557e-02  2.25683004e-02 -6.17151111e-02
  -1.04263052e-02 -5.52650690e-02  5.86107373e-03 -5.77140898e-02
   5.71764037e-02 -5.36523722e-02 -2.90198438e-02 -6.85171783e-03
   6.83394447e-02  2.66130045e-02 -8.06848630e-02  2.90192664e-04
  -2.00081617e-03  6.67323992e-02 -3.02971601e-02  8.09465274e-02
   4.43001837e-03  2.59636790e-02 -1.41952783e-02  3.43385935e-02
  -3.84850539e-02 -1.33340284e-02 -4.67211977e-02 -1.87891312e-02
   1.66215003e-02  2.48002857e-02 -7.58615807e-02 -7.81631097e-02
  -1.07413977e-02 -2.50309743e-02  5.85973933e-02 -1.92230418e-02
  -2.96796300e-02 -2.33181566e-03 -1.61557570e-02 -5.90113439e-02
   6.67995140e-02  4.00138646e-02 -3.19451094e-04  3.18361968e-02
   7.84748271e-02  1.83131173e-02  5.94112948e-02  4.53411713e-02
  -7.17461556e-02 -4.19378281e-03  1.15735829e-03  4.22571450e-02
   2.90864632e-02  2.49198377e-02  4.16148230e-02  2.72669643e-02
  -4.53588143e-02 -4.13473547e-02  4.38170657e-02 -2.64582746e-02
   7.21522346e-02  4.28485274e-02 -7.36098662e-02  6.00850061e-02
  -4.34702933e-02  4.51146737e-02 -4.10433859e-03  2.43543833e-02
   2.02177316e-02 -3.67498100e-02  5.10373935e-02  1.74091011e-03
   4.84588221e-02  3.11549902e-02  5.02477512e-02 -7.00425282e-02
  -4.60245460e-03 -7.40962476e-03 -6.16942346e-03  2.51311660e-02
  -4.33698706e-02  7.92322233e-02 -4.30431888e-02  2.11341307e-02
   5.80198541e-02  6.81156591e-02 -5.47830053e-02  6.19970933e-02
  -6.85976520e-02  2.46486515e-02 -4.23010401e-02 -8.46569240e-03
   6.32367507e-02 -1.84046105e-02  5.66401407e-02  6.05816171e-02
   4.28553149e-02  2.28847563e-03 -6.77004680e-02 -4.65204641e-02
  -4.78369221e-02  2.79363766e-02  7.99384937e-02 -1.31971166e-02
  -3.93762216e-02 -2.28723176e-02  5.75922653e-02 -1.58664212e-02
   2.85974592e-02  5.38201109e-02  2.47483701e-03  6.76098093e-02
  -1.02809370e-02  4.35813367e-02  3.41853946e-02 -3.99186797e-02
   4.83048037e-02  7.85768256e-02 -3.01985741e-02  8.10704008e-02]
 [-1.20816962e-03 -1.80998985e-02 -1.04753152e-02  6.14883341e-02
  -4.17228509e-03  2.56268140e-02 -2.87690070e-02 -8.27753823e-03
   6.60789534e-02 -5.63358143e-02  5.75526282e-02 -7.82802794e-03
   2.76952870e-02  4.94179465e-02  2.68229172e-02  6.39472827e-02
  -2.44920347e-02  3.66832688e-02 -5.91880232e-02 -7.77166560e-02
  -2.27291919e-02 -8.98784921e-02  3.38788852e-02  9.25658718e-02
   2.50219386e-02 -2.87029017e-02 -3.89620406e-03  9.07695442e-02
  -5.24256788e-02 -7.07300007e-03  6.76005110e-02  5.59242070e-03
   7.52951726e-02  3.57952677e-02  7.50162974e-02  4.78175953e-02
   3.08022927e-02  2.37989537e-02 -2.00695125e-03  9.80768166e-03
  -5.69094019e-03 -2.91122831e-02  4.58627678e-02  1.52164236e-01
   6.18259795e-03  7.60186836e-02  1.78334080e-02 -4.12672460e-02
  -3.17334896e-03  6.07943498e-02  7.28484094e-02  3.05393077e-02
  -2.66052429e-02 -2.49199625e-02 -2.62547061e-02  2.68991716e-04
  -5.03857508e-02 -3.41867432e-02  6.14914149e-02  5.71148321e-02
  -7.23787248e-02  2.38397196e-02 -3.58792692e-02  8.64315685e-03
  -2.43423432e-02  2.68215151e-03 -2.77407411e-02 -7.91456085e-03
  -2.44091358e-02  1.89011917e-02  5.88467494e-02 -3.64400819e-02
  -6.19240962e-02 -6.33157864e-02  3.82819474e-02 -9.09385309e-02
   1.02209032e-01  2.08071060e-02  6.16501272e-02  3.41239870e-02
   3.10214963e-02 -6.92520738e-02 -6.80306973e-03 -1.36640370e-02
  -9.90706775e-03  5.96760809e-02 -4.13965853e-03 -4.13915999e-02
   4.09398004e-02 -4.10540327e-02  3.94969396e-02  3.43982093e-02
   2.58945040e-02  2.00517960e-02 -2.90152859e-02 -4.84980550e-03
   1.07110724e-01  3.44434963e-03 -5.98054901e-02  6.82535917e-02
  -1.46898776e-02 -1.04568221e-01  9.65758339e-02 -1.18047139e-03
   5.46345189e-02 -6.86234143e-03  3.07285562e-02  1.11225165e-01
   3.89660411e-02  3.12512890e-02  5.37718311e-02 -5.13368705e-03
   3.62577438e-02  4.28628400e-02 -2.51620151e-02  4.90298457e-02
   1.26242295e-01 -3.36511210e-02  5.86195383e-03 -7.36720264e-02
   6.33218959e-02 -3.40302885e-02 -1.15415968e-01  2.07361877e-02
   1.26711711e-01  8.12831074e-02  8.07778090e-02 -2.30528768e-02]
 [ 6.10275567e-02  3.75763625e-02 -2.95881256e-02 -1.54512282e-02
   6.84177876e-02 -1.34075666e-02  6.90799281e-02  6.91368729e-02
  -4.74416539e-02  4.06192988e-03 -3.36057991e-02 -8.04288080e-04
  -2.64860634e-02  2.47614235e-02 -3.15581523e-02  3.53174210e-02
   5.17005548e-02 -7.57172257e-02 -1.56149901e-02 -3.35075185e-02
  -8.07275623e-02  3.89707973e-03  3.57485451e-02  2.30216980e-02
   6.77943649e-03 -5.51573858e-02 -6.66794479e-02  8.33768323e-02
   1.00318315e-02  2.00388879e-02 -1.11315353e-02  4.48244587e-02
   6.65846318e-02  9.03285593e-02  8.23181495e-02  2.04351842e-02
  -3.64032313e-02 -1.19473450e-01 -4.57505835e-03  1.14228427e-01
   4.67480235e-02 -7.10911453e-02  3.76219638e-02  5.52362390e-02
  -7.76662901e-02  1.81639418e-02  3.80569398e-02 -8.28143582e-02
  -4.06106003e-02  3.69096287e-02  8.41829851e-02 -7.71612376e-02
   6.52516559e-02  9.96824130e-02  1.05440997e-01  1.12335309e-01
   6.41012490e-02 -1.43727437e-02  5.49331829e-02 -8.62342641e-02
   3.78532261e-02 -2.65457928e-02  2.21844725e-02  2.70252824e-02
   2.83184946e-02  9.06349048e-02  2.55276002e-02  3.65790576e-02
   5.61465286e-02  3.17290649e-02  7.98165724e-02  4.05948283e-03
   8.21232945e-02 -7.84473196e-02 -5.50460592e-02  2.60533988e-02
   8.61904398e-02 -8.85582939e-02 -4.28146124e-02 -3.78892124e-02
  -3.55612375e-02  2.66037695e-02  2.80187596e-02 -2.86521744e-02
   4.03172560e-02 -5.53108156e-02 -7.80523419e-02 -1.60919763e-02
   5.33770695e-02  7.21081495e-02  1.61698628e-02  4.21982296e-02
  -7.27489069e-02 -5.99262938e-02 -1.07517794e-01  5.60595421e-03
   5.82672097e-02 -3.28257121e-02  1.21973008e-02 -3.41580361e-02
   6.07930049e-02  2.23167222e-02  2.44787820e-02  1.09366447e-01
  -4.15918864e-02  3.00077423e-02 -5.48746772e-02  1.01928040e-01
   3.83250788e-02 -7.51799345e-03 -7.46061374e-03  1.13468934e-02
  -1.53355496e-02  3.60733382e-02  6.08327985e-02  1.04729503e-01
   4.35610190e-02  2.40719113e-02 -5.38217798e-02  5.50910830e-04
  -3.19399149e-03  1.69732310e-02 -4.12407480e-02 -5.96924946e-02
   9.61657539e-02  2.16331221e-02 -6.77055269e-02  4.46088649e-02]
 [ 8.30312818e-03 -5.74183539e-02  5.57638220e-02 -1.16302244e-01
   4.36291434e-02  7.55934566e-02  5.54370880e-03  5.61668910e-02
  -3.95013466e-02 -1.36167929e-02  3.98010341e-03 -1.71239730e-02
  -1.93561856e-02 -6.52659461e-02 -5.31835929e-02 -1.39912814e-02
   8.75709429e-02  4.20473441e-02  2.69704591e-02  5.90646788e-02
   7.99527094e-02  5.94428256e-02 -4.64776251e-03 -1.01645067e-01
   5.74458316e-02  4.16528359e-02  2.78445687e-02  5.65869696e-02
   3.56832519e-02  1.76185071e-02 -2.23837048e-03 -5.83711118e-02
   6.20649494e-02  3.40300128e-02 -1.21780680e-02  3.07725891e-02
  -7.30076358e-02  7.53875151e-02  7.47189671e-03  9.60150361e-03
  -8.76782387e-02  7.14132711e-02 -9.78091732e-03 -1.53223081e-02
  -1.28838718e-02  4.31193262e-02 -1.10659070e-01  1.99053483e-03
  -3.23352218e-02  7.60534406e-03  5.80470590e-03 -4.65460904e-02
   2.34753937e-02  6.75801486e-02 -1.75773073e-03 -8.10806453e-03
   3.33995447e-02 -1.26640350e-02  7.68514872e-02 -5.37123494e-02
   9.65215918e-03 -5.29312491e-02 -5.29064499e-02  9.78787616e-02
  -5.40681109e-02 -4.53898124e-02 -3.16873901e-02 -1.13069266e-02
   2.90318974e-03  4.10708189e-02  7.27861747e-02  1.05316684e-01
  -2.84325667e-02  5.65377511e-02  2.83200890e-02  8.77950713e-02
  -6.75091445e-02 -6.33894578e-02 -1.62348617e-02 -8.20990559e-03
   6.31807223e-02  3.98523398e-02 -3.97091061e-02  5.88871166e-02
   5.27839474e-02 -1.05530627e-01 -7.26254731e-02 -2.32194327e-02
   5.87576851e-02 -5.34775853e-03  1.71005651e-02  4.27938672e-03
  -1.26897320e-02  8.63392800e-02 -3.57900106e-04  3.87356468e-02
  -3.76039185e-03 -2.74090022e-02  5.80294207e-02  9.61195771e-03
  -5.09669036e-02  1.46557773e-02  3.37934047e-02 -7.19654560e-02
   3.67050990e-02 -5.62295988e-02  4.91874479e-03 -1.22143403e-02
   3.36809456e-02 -8.00164342e-02  8.50696936e-02  1.04199156e-01
   4.02869806e-02 -5.25747128e-02 -2.21739467e-02 -1.06809884e-02
  -1.79580338e-02  5.24812192e-02  2.64946371e-03  9.20855999e-02
  -7.61067495e-02  6.66831061e-02  1.05320387e-01 -4.91146222e-02
   5.69964722e-02  6.83223680e-02  1.33863157e-02 -7.22479373e-02]
 [ 4.20980677e-02  5.96171096e-02 -3.74542661e-02 -2.09269188e-02
   1.27650406e-02 -4.60634977e-02 -7.21710026e-02  1.47596402e-02
   3.38546447e-02 -4.16582078e-03  6.57842234e-02  7.86868930e-02
   7.40081668e-02 -2.90569644e-02 -5.72138280e-02 -8.37692618e-03
  -8.55413824e-03  2.22440958e-02 -4.00881842e-02  2.63734162e-02
   3.61859798e-04 -6.17865063e-02  7.42670521e-02  2.35548876e-02
   4.58840355e-02 -5.06564230e-02  1.67817168e-03 -6.96246326e-02
  -7.81773403e-02 -7.81514645e-02 -5.53096086e-02 -4.31131572e-03
   2.57686283e-02  2.25484055e-02  2.75644343e-02 -8.03953633e-02
  -1.09159732e-02 -3.43995728e-02 -4.27151136e-02 -1.73220485e-02
  -1.16558149e-02 -6.04855195e-02 -3.57917696e-02  5.06155379e-02
   6.88643008e-03  2.38887370e-02  1.40583736e-03  5.05525917e-02
  -1.07027590e-02  5.02471663e-02 -3.19142491e-02  5.06165102e-02
   2.40981951e-03 -2.61777248e-02  6.37110174e-02  5.88907078e-02
  -2.19829679e-02  5.37906811e-02 -4.67396788e-02 -3.01675010e-03
   3.82887088e-02 -7.75606409e-02  3.94509211e-02  1.19654639e-02
   2.53564678e-04 -4.96029109e-03  1.54929012e-02 -5.46660274e-02
   6.41485602e-02  3.35654095e-02  2.88933516e-05 -1.09786689e-02
   6.49075489e-03 -6.04467131e-02 -7.37743601e-02 -5.32670282e-02
  -4.74426262e-02  7.22846240e-02 -8.67569372e-02  5.57805412e-02
  -2.11765245e-02  1.62125472e-02 -1.33782895e-02  6.99846298e-02
  -9.69574135e-03  9.18831863e-03 -3.86602245e-02 -7.19079375e-02
   1.43528655e-02  7.39903823e-02 -2.97093038e-02  1.33652966e-02
   6.25103340e-02  3.21412385e-02  2.13163756e-02  7.86092281e-02
  -1.87093019e-02 -4.53782678e-02 -4.24268842e-03 -1.95197128e-02
  -8.45742971e-03  3.67552750e-02 -2.08400935e-03 -5.72562590e-02
   3.99463549e-02 -5.98173924e-02  2.50798576e-02  5.84438210e-03
   6.36381432e-02 -7.52556697e-02  6.37630895e-02  1.54759632e-02
   3.99713218e-03 -5.41394688e-02  2.51389146e-02  7.38075236e-03
  -3.74975731e-04  1.03117909e-05  7.17196986e-02  2.43306290e-02
  -3.32498848e-02 -4.92710620e-03  6.03733435e-02  5.79018816e-02
   3.39636058e-02 -4.89720665e-02 -4.13237549e-02 -4.43808176e-02]
 [-5.30043468e-02  7.67284557e-02  6.69402555e-02  6.99291304e-02
   5.82530573e-02 -2.48450339e-02 -7.20581040e-02  1.32263154e-02
  -5.06152511e-02 -4.16066609e-02  5.84489331e-02 -7.30886012e-02
  -4.69470099e-02 -2.14607380e-02  7.74515197e-02  1.47381797e-02
  -2.14468129e-02 -3.39441001e-03  1.63694248e-02  4.47668061e-02
   1.66014656e-02  4.55923006e-02  7.37000257e-03 -5.70855960e-02
   2.13945061e-02  2.98287719e-03  5.32303378e-02  6.52303323e-02
  -2.26678699e-02 -6.20169938e-03 -7.48821348e-02 -5.48145249e-02
   5.87920323e-02  3.49233672e-02 -1.18746832e-02 -6.25015199e-02
   7.05999956e-02  1.23914331e-03  2.23031715e-02  7.17670843e-02
   6.40539750e-02 -2.71974243e-02 -5.81109524e-02 -4.91867922e-02
   2.43458003e-02  1.40562579e-02 -1.35025978e-02 -4.49406989e-02
   2.26441398e-02  6.60076737e-04 -6.37079403e-02  5.29561937e-03
   7.34365508e-02 -7.33598769e-02  7.01337531e-02 -8.47568363e-03
   6.71092197e-02  1.60768777e-02 -5.02139479e-02 -5.87822497e-03
   2.53533423e-02 -6.30251616e-02 -7.25661367e-02  7.05719367e-02
   7.06214532e-02  8.78434628e-03 -5.22107221e-02  3.77547070e-02
  -4.19620238e-02  4.02385965e-02 -1.53067484e-02 -7.99985602e-02
   2.31210068e-02  3.44343185e-02 -4.18305397e-02  5.88040799e-03
   1.74236149e-02 -4.77926917e-02 -4.42925207e-02 -5.11873774e-02
   6.77773133e-02  3.30022201e-02  4.87351790e-02 -4.61475849e-02
  -3.81277576e-02 -2.75797211e-02 -7.55552799e-02 -6.54936209e-02
  -2.25766152e-02  1.59746557e-02 -1.96786337e-02 -5.17827272e-03
  -7.40638524e-02  2.18252018e-02 -1.18302405e-02  5.00415042e-02
  -6.17629737e-02  2.99134478e-02  2.47233585e-02 -3.56513336e-02
   7.30590895e-02 -3.89210731e-02  2.72854492e-02 -8.32007080e-03
  -4.99337912e-02  4.09443825e-02 -1.51940435e-02 -2.52633430e-02
   1.54670626e-02 -2.77970061e-02 -5.79390153e-02  6.82882890e-02
  -1.52959004e-02  3.36743593e-02  2.47147158e-02 -7.86095858e-03
   2.43990570e-02  6.33203760e-02 -1.92236640e-02  3.07043865e-02
  -7.87891671e-02  3.77603546e-02 -4.25788760e-02 -7.26953968e-02
  -7.67445490e-02  1.81585252e-02  1.45750642e-02  6.58755675e-02]
 [ 6.09564856e-02  4.12930325e-02 -3.45085189e-02  1.35682523e-02
   1.10734403e-02 -4.62439097e-02  6.61491081e-02  5.59393987e-02
  -2.23456360e-02 -4.79770638e-02  3.56657207e-02 -2.21717358e-03
   5.15405461e-02  5.73624000e-02  7.10114166e-02  5.81266955e-02
  -7.49289244e-03  3.52911949e-02 -1.10459179e-02  7.15447143e-02
  -2.75701508e-02  9.56872851e-03  5.99415973e-02  2.28023529e-02
   5.67617640e-02  3.76727656e-02  7.11280480e-02 -6.71789497e-02
  -3.97785529e-02 -3.36072966e-02  2.00420767e-02  1.27777457e-02
   7.84014389e-02  6.78960159e-02  1.38230175e-02 -2.04664394e-02
  -8.05971771e-03  5.21283671e-02 -7.00502843e-03 -2.90529132e-02
   4.18091342e-02 -1.28601491e-03  4.11597118e-02 -3.33464034e-02
   3.30958962e-02  5.22330329e-02 -3.09663229e-02 -4.62146886e-02
   4.84441966e-03  7.48591125e-03 -6.14710152e-03  7.13148788e-02
  -7.05587268e-02 -1.38497427e-02  6.19705841e-02  7.75295421e-02
   2.92911604e-02 -2.83379965e-02 -7.88314939e-02  4.56104055e-02
   3.42201442e-02 -3.58452648e-03  6.31405413e-03  4.63068709e-02
   3.93007025e-02 -2.82744318e-02  1.97329745e-02  5.89245185e-02
  -6.15568236e-02 -5.24810702e-02 -3.95004116e-02  7.60999992e-02
   6.59251288e-02 -7.63921216e-02 -7.09878206e-02 -3.91004756e-02
   4.35308442e-02 -3.61998677e-02  4.10730615e-02  7.36981705e-02
  -4.36297059e-03 -1.55654177e-02 -5.39451763e-02 -7.35061318e-02
   4.88443300e-02 -7.43483007e-02 -6.32965565e-02 -2.68059969e-03
   1.15165561e-02 -2.53171623e-02 -5.78430593e-02 -1.24556273e-02
  -1.56508908e-02  3.35461646e-02  3.26598585e-02 -4.61280532e-02
  -3.02556604e-02 -3.24692763e-02 -3.93390134e-02  5.88385388e-02
  -5.87041378e-02 -1.70581043e-03  7.91808963e-03  2.17283517e-03
   4.54012379e-02 -7.58045092e-02  7.74072930e-02 -2.49816403e-02
   3.64355221e-02  6.19319454e-02  4.74294648e-02 -6.64300397e-02
   9.95533913e-03  7.56280050e-02 -2.55806819e-02  2.28665546e-02
  -7.33003020e-03 -4.14419360e-02 -3.22655588e-03  1.00479499e-02
  -4.19275016e-02  5.14028445e-02  5.20670414e-03  4.80357930e-02
  -7.52807334e-02 -7.51450136e-02  2.02378184e-02 -4.16332483e-03]
 [-2.26465613e-02  2.10171714e-02 -7.12063462e-02  6.90870658e-02
   6.02354333e-02 -7.40504488e-02 -3.19774263e-02  5.28194085e-02
  -7.38024190e-02  7.29394630e-02  6.83468059e-02 -3.81489359e-02
   4.56360057e-02 -3.70811336e-02 -2.30657756e-02 -3.60387191e-02
   4.36070561e-03 -2.86097378e-02  6.41266331e-02  1.22108012e-02
  -8.73037428e-03 -1.91933773e-02 -2.46681273e-02 -1.87469274e-03
   7.74590746e-02  3.25497985e-02  4.66351435e-02  2.18154937e-02
   3.74467224e-02  1.05472654e-03  1.01445019e-02 -7.38280267e-03
  -3.90614308e-02 -4.35849689e-02 -7.53892809e-02  5.45164421e-02
   3.45692784e-02  2.57264823e-03 -3.66678908e-02  1.24177337e-03
  -3.59460525e-02 -6.55735061e-02  3.06689218e-02  4.68449295e-03
   6.46288469e-02 -2.85049230e-02  1.30836144e-02 -7.28884488e-02
   1.58130452e-02  2.33693272e-02  5.99770769e-02 -1.12937763e-02
   6.84499741e-04  1.10522434e-02  1.34784505e-02 -4.33172323e-02
   7.93955699e-02  5.04098460e-02  2.90587917e-02 -6.32287189e-02
  -2.31753848e-02 -3.88039611e-02  1.31718367e-02 -5.88257611e-03
   7.36104622e-02  7.83375427e-02 -7.66616315e-03  2.35755146e-02
   3.26198265e-02 -4.13387306e-02  2.59929374e-02 -5.49109653e-02
   7.85169750e-03  3.79380584e-03 -7.82572031e-02 -7.57913813e-02
   2.19419673e-02  4.98326346e-02 -2.19076052e-02 -6.22453466e-02
  -4.14927192e-02  4.97550443e-02 -6.90779164e-02 -2.41018459e-02
   4.26912904e-02 -3.07692662e-02  2.62404084e-02 -2.41308138e-02
  -2.07029469e-02  4.09334153e-03 -6.79161102e-02  4.70688269e-02
  -6.60727844e-02  3.25084552e-02  1.62629038e-03  4.56023291e-02
  -2.28223205e-03  4.85013053e-02 -2.37465426e-02 -1.33102834e-02
   3.69555652e-02  5.67301437e-02  1.15433782e-02 -3.47368419e-03
  -7.71930814e-03 -7.50762299e-02 -4.22534347e-03 -1.62043720e-02
   4.91220877e-02 -7.22005218e-03 -1.19323656e-02  7.84357563e-02
   5.00048622e-02 -2.13139206e-02 -4.26666141e-02 -2.21427418e-02
  -2.02668272e-02 -3.06815095e-02 -5.38335331e-02 -5.22957332e-02
  -6.81223720e-02  1.42706782e-02  3.56685072e-02  4.42667827e-02
  -1.53029412e-02 -3.96320671e-02 -1.95960701e-03 -2.40553953e-02]
 [ 3.42301279e-02  1.93944424e-02  6.37042299e-02  4.30282950e-02
   1.35622993e-02  5.82040101e-03 -7.97247142e-02 -3.91662270e-02
  -3.67643908e-02 -5.62220663e-02 -7.33557418e-02 -3.10962759e-02
  -3.03399563e-02  3.16656530e-02 -5.55780828e-02 -4.33218516e-02
  -4.81394492e-02 -6.78815544e-02 -2.75215544e-02  7.22264424e-02
   4.80507836e-02 -1.08785704e-02  3.36429179e-02  2.26262957e-02
   5.99566177e-02  7.34894052e-02  7.15864971e-02  4.84639406e-03
  -4.33503091e-03  7.43427798e-02  3.37787271e-02 -8.04649219e-02
   5.72893694e-02 -5.60476333e-02  4.74116132e-02  6.66390881e-02
   5.53282276e-02  2.06944942e-02 -9.18783247e-04 -7.23350272e-02
  -4.74542938e-02  3.94816697e-03 -1.67973638e-02 -3.81730124e-02
   3.03143710e-02 -5.64341992e-03  3.90064940e-02  1.54254436e-02
  -5.00910133e-02 -3.76071520e-02  4.93256226e-02  8.79304856e-03
  -4.80874851e-02  2.55252793e-02 -1.17773116e-02 -7.55789503e-02
   7.57458583e-02 -6.01241663e-02  6.11891970e-02  4.26800177e-02
  -5.47731631e-02  5.13883159e-02 -6.58190995e-02  1.26568973e-03
  -3.56223844e-02  2.50140876e-02 -2.56093219e-02  3.54553238e-02
   3.41087356e-02  1.65165290e-02 -3.69253606e-02 -6.08980060e-02
  -2.74337940e-02  2.91225091e-02  5.52818552e-02 -2.29866058e-02
  -6.66958392e-02  4.93790731e-02  8.28924775e-03 -6.67880103e-02
   9.35269892e-03 -6.34303764e-02 -4.55800071e-02  5.58584258e-02
  -2.50836499e-02  4.02301028e-02  7.08131492e-03  6.32980689e-02
   2.04576030e-02 -1.92665160e-02 -3.91272008e-02  5.94084188e-02
  -8.19787383e-03  1.67150050e-02 -7.88824931e-02 -5.82064092e-02
  -1.72988474e-02  6.18241653e-02  5.96168414e-02  3.46043035e-02
  -4.81530242e-02 -6.46573305e-02  5.67618385e-02  1.18218139e-02
   5.77597842e-02  2.67043710e-02 -4.28976268e-02 -7.14536086e-02
   2.04918906e-02  1.29869431e-02  1.09181330e-02 -1.32507980e-02
  -6.28704205e-02 -4.77641709e-02 -1.95838399e-02 -1.60658732e-02
   7.00877234e-02  7.08127767e-03  8.75551254e-03 -6.16676919e-02
   6.87950328e-02 -1.33304149e-02 -1.05920732e-02 -4.05858308e-02
  -3.48495133e-02  3.82171795e-02  4.89125177e-02  7.77824968e-03]
 [-5.85724786e-02 -6.08080253e-02 -6.89456016e-02  3.81357670e-02
  -1.04541853e-02 -3.55764478e-03 -6.33401275e-02 -1.51049495e-02
   1.09040737e-02  6.78040460e-02 -6.08922653e-02  2.00623050e-02
   7.22686574e-02  3.97355855e-03  8.01814571e-02  7.32980147e-02
   1.74290314e-02 -6.96791038e-02  6.56990930e-02  1.77872702e-02
   4.01834399e-03  1.41440332e-02  6.68505579e-03 -6.48953691e-02
  -2.02406645e-02 -6.23541623e-02  1.84057876e-02 -7.17007518e-02
  -7.16742948e-02  7.24178180e-02  5.20950630e-02 -1.05185062e-03
   2.60398164e-02 -2.57032104e-02  7.18999580e-02  2.88574249e-02
  -7.30570257e-02  5.07273898e-02 -5.07078841e-02  3.95709351e-02
   4.10827696e-02 -5.08997589e-02  5.75642660e-02 -4.39085178e-02
   7.23385587e-02 -2.43701823e-02  6.92900494e-02  1.04187801e-02
  -2.69243084e-02  4.55248132e-02  7.88644478e-02  4.69465479e-02
  -8.09290260e-02  3.97923440e-02 -6.57575652e-02 -5.32578677e-03
  -6.67855889e-02  9.19661671e-03 -6.05289564e-02 -6.27794862e-02
  -4.51385900e-02 -7.01280460e-02 -7.26355240e-02 -1.08916983e-02
  -6.90779537e-02  8.01220015e-02  3.19595784e-02 -6.47200644e-02
  -5.96350804e-02  1.98408067e-02  6.30430877e-04  7.50519559e-02
  -7.19255954e-02  9.85270739e-03  5.31085208e-02 -1.35670006e-02
   5.34554645e-02 -4.59975563e-02  7.15213269e-03  7.78768957e-03
   6.29956946e-02  5.45543954e-02 -3.23123485e-03 -7.16146529e-02
   6.29083440e-02 -4.52274308e-02 -2.86874995e-02  4.49616387e-02
   4.35975567e-02  6.05664179e-02 -2.95402408e-02 -2.91222408e-02
  -2.77800299e-02 -4.78945114e-02 -7.48036802e-02 -7.67016932e-02
   4.66129258e-02  7.87825137e-03  7.61248097e-02 -6.05963096e-02
   7.74420723e-02 -3.19876522e-03 -8.08578208e-02 -3.15156095e-02
   1.01995766e-02  3.34548727e-02  2.07610577e-02 -1.40842795e-02
  -2.06949413e-02 -7.95362070e-02  6.73092082e-02  5.64460084e-02
   7.95262977e-02  1.92236602e-02  4.72829565e-02 -1.76868290e-02
   3.55870724e-02 -5.17472401e-02 -8.63609463e-03 -2.96243615e-02
  -3.19598876e-02  5.78705743e-02  5.58261648e-02  7.30229244e-02
   4.08937931e-02  3.87918204e-02  3.53598595e-03 -2.73067430e-02]
 [ 2.96922773e-02  4.98724729e-03 -5.47030792e-02 -7.00345412e-02
   2.07946450e-02  6.06551245e-02 -1.73853263e-02 -2.33888440e-02
   4.16598842e-02  2.33338624e-02 -1.36858299e-02  2.09109262e-02
   3.30678374e-02 -3.86428349e-02  6.37752786e-02 -6.03713319e-02
   3.65391970e-02 -4.23661135e-02  5.41373566e-02 -4.19858843e-02
   6.48650900e-02  4.50168550e-03 -7.08298907e-02  8.10262039e-02
  -6.02986179e-02  4.97177318e-02 -1.65248290e-02 -4.17539217e-02
  -1.18222758e-02 -5.75927831e-02 -1.06150284e-02 -5.67565933e-02
  -7.11906627e-02  3.20133343e-02 -6.92893565e-02 -2.12973282e-02
   4.27268893e-02 -3.30911949e-02  6.68278858e-02 -7.64193162e-02
   7.18952790e-02  1.92942470e-02 -4.14999351e-02  9.16846097e-03
   7.82267824e-02  7.08717629e-02  2.77085155e-02  3.52613628e-04
  -6.90331459e-02  1.29915476e-02 -1.22246072e-02  1.53291449e-02
   3.84008512e-02  2.55771279e-02 -3.81059945e-04  2.88961381e-02
   4.54551950e-02 -5.82353957e-02 -6.34603947e-03 -2.68314257e-02
   6.90562353e-02 -9.53948498e-03 -4.19114716e-02 -5.13354503e-02
   8.04496482e-02 -4.04275842e-02  2.38575861e-02  2.52927393e-02
  -6.49274513e-02 -3.96803916e-02  4.53583822e-02 -2.86670960e-02
  -7.78857172e-02 -4.51725684e-02  2.30738521e-03 -5.44011295e-02
  -5.57024032e-03 -7.97364935e-02 -2.41383910e-04  4.75358292e-02
  -6.94263726e-02 -6.94929734e-02 -5.12278713e-02 -3.16429697e-02
  -1.05057657e-02 -3.97748500e-03  7.89595321e-02 -7.39042908e-02
   4.43817452e-02  2.18123868e-02  8.10111687e-02  5.67150638e-02
   2.64203548e-03 -6.35128915e-02  5.85966781e-02 -3.74391042e-02
  -7.97833875e-02  3.60178724e-02 -4.90443446e-02 -7.46942610e-02
   4.67041135e-03 -3.66265289e-02 -2.66677141e-03  4.56141010e-02
   2.89575011e-02 -6.54341355e-02  2.60858759e-02  7.39654228e-02
  -5.20582795e-02 -3.57850194e-02 -3.07643339e-02 -6.68314397e-02
   2.47319043e-02  6.16405979e-02  5.23480847e-02  1.30778179e-02
   7.51910433e-02 -4.22435887e-02  3.08008865e-02  7.44474903e-02
  -3.33753526e-02 -9.76901501e-03  1.48643851e-02  5.54151163e-02
  -4.86855246e-02  5.74117154e-03  2.65589282e-02 -3.32562886e-02]
 [-4.82292734e-02 -5.70303947e-03  7.63346255e-03 -3.59038338e-02
  -2.75477953e-02  4.75198701e-02  7.72152171e-02  2.07117274e-02
  -6.15579858e-02 -5.19385152e-02 -4.28146869e-02  3.15833315e-02
  -1.03880316e-02 -4.06800285e-02  1.87418088e-02  5.87702021e-02
  -7.14221224e-02 -4.96562496e-02 -7.53442571e-02 -1.56631693e-02
  -7.19419718e-02 -5.88584170e-02  5.62955439e-03  2.85130069e-02
  -4.24491912e-02 -7.46564567e-03 -1.78643912e-02  1.46572515e-02
   5.56549504e-02  6.34137914e-02 -5.02938107e-02 -4.10204381e-03
   7.58059397e-02 -3.05494294e-02 -7.16292933e-02 -6.34305477e-02
  -4.42941636e-02  5.00623956e-02  4.78455797e-02 -6.12262748e-02
  -6.52976856e-02 -7.08853900e-02  2.48228535e-02 -1.20457485e-02
  -5.28636798e-02 -1.57916769e-02  7.98837170e-02 -7.18168020e-02
   8.93344730e-03  3.14068496e-02  5.69914654e-02  2.37983093e-02
   6.82108030e-02  1.78974792e-02  3.21765319e-02  2.25603580e-04
   1.31054670e-02 -3.16619799e-02  3.80073413e-02  5.12456968e-02
   2.34383494e-02 -4.69559245e-02  4.63627204e-02 -5.00758290e-02
   3.90645638e-02 -7.53184035e-02 -1.88143104e-02  2.86237895e-03
  -3.06684934e-02  3.39619815e-02 -5.29784523e-02  2.70171314e-02
  -4.31974977e-03  6.26828149e-02  1.22552216e-02 -6.24580458e-02
  -6.31842762e-02  2.10984498e-02 -2.67597400e-02 -1.25367716e-02
  -6.63828552e-02 -5.74997663e-02 -3.39326821e-02  5.64232469e-04
  -2.20452957e-02  8.11090842e-02  2.44737417e-02 -2.11558305e-02
  -7.46883824e-02  7.80257657e-02 -7.81136602e-02  1.15199387e-02
   1.18437409e-03 -7.67852515e-02  1.97308511e-03  7.80511722e-02
   3.90974432e-02  7.56833926e-02  5.97577021e-02  3.56006697e-02
  -6.28367662e-02  7.55031407e-03 -3.39603946e-02  3.67263332e-02
   6.80436268e-02  2.21970826e-02 -6.24888167e-02  4.44297493e-03
  -1.13226920e-02  1.23391300e-02  7.65173957e-02  2.23052800e-02
   4.88143042e-02  4.24205884e-02 -4.29786742e-02  6.60703406e-02
  -8.09786096e-02  8.01384374e-02  2.10622698e-02  3.60145494e-02
  -7.19251111e-02  1.39510930e-02 -3.51368599e-02  2.85484344e-02
  -8.02865103e-02 -6.36937842e-02 -6.98040277e-02 -2.09069662e-02]
 [-4.80694436e-02  3.53079811e-02 -5.27840629e-02  2.95878276e-02
  -7.43965283e-02 -5.60509413e-02  3.41708362e-02 -4.54343855e-03
   7.68717751e-02 -1.44809037e-02 -3.28318886e-02 -4.69485000e-02
  -6.46757856e-02 -1.90879852e-02  6.83699027e-02  3.77595797e-02
   1.13598183e-02  5.02985492e-02  7.26145506e-03 -2.77907625e-02
   5.87354973e-02  7.44204298e-02  2.69355476e-02  4.38117236e-03
  -6.20375760e-02 -1.92047693e-02 -3.68398428e-03 -8.71246308e-03
  -1.93165429e-02 -7.46640712e-02  6.99448660e-02  6.88176602e-03
  -5.15970811e-02 -6.88173473e-02  6.21421114e-02 -7.71492198e-02
   2.98786163e-03  1.70978382e-02  4.60210368e-02  4.57072929e-02
  -4.59345542e-02  5.41511998e-02 -7.09196925e-02 -4.68959659e-03
  -7.58569166e-02 -7.89665133e-02  4.08925191e-02  4.01648879e-03
  -7.78627247e-02  6.49549440e-02  3.63308936e-03  4.50221524e-02
  -2.98481435e-02  6.05570152e-02 -8.07830393e-02  5.21669462e-02
   5.94602525e-03 -4.48055640e-02  6.92930743e-02 -4.00011763e-02
  -4.61463071e-02 -7.62856901e-02  5.14299795e-02 -6.89397454e-02
   8.13390315e-03  5.79976812e-02  7.41808936e-02 -5.76889142e-02
   3.74165773e-02  4.41738591e-02 -7.78153241e-02  1.62750334e-02
  -7.16098994e-02  3.39806229e-02 -9.54557955e-03 -2.45009474e-02
   3.28928977e-02  2.92483270e-02 -7.27130696e-02  7.43617341e-02
  -2.01976374e-02  2.38632485e-02  3.71079370e-02  1.72475427e-02
   5.91005385e-03  4.14286107e-02 -2.44061537e-02  1.25292242e-02
   3.75839099e-02  1.53648183e-02  6.45392016e-02  2.11980417e-02
   6.89399019e-02 -2.80395113e-02  2.42460296e-02  2.85924524e-02
  -7.44996816e-02 -5.76995090e-02 -7.92823657e-02 -7.26242363e-03
  -4.78674732e-02 -1.28930733e-02 -7.96813369e-02  4.74731997e-02
  -7.22160339e-02  3.77127975e-02 -3.51812392e-02  5.54810241e-02
  -5.08908443e-02  7.89294615e-02 -7.11686909e-04 -6.49439469e-02
   6.30063042e-02 -3.92682180e-02  3.89153287e-02 -4.09292020e-02
  -6.11622483e-02 -5.35818636e-02 -8.03846121e-02  3.79181877e-02
   5.76961115e-02 -3.93573456e-02  5.48758730e-02  5.66255823e-02
   6.30591139e-02 -2.76185907e-02  2.00417340e-02 -3.96636650e-02]
 [ 6.41017333e-02  7.07228556e-02  7.33563304e-03 -1.22712553e-02
  -3.68014425e-02  7.73267969e-02  6.10819459e-03 -3.95299979e-02
  -1.31770968e-02 -3.95858884e-02  3.08834389e-02 -7.33358786e-02
   1.13799348e-02  7.55254552e-02  1.83081701e-02  4.03953865e-02
   5.38394675e-02 -7.32220188e-02  3.49095985e-02  2.82300711e-02
  -4.71267588e-02  2.41040662e-02  6.54286668e-02 -5.01453504e-02
   1.75234601e-02 -7.39090145e-03 -6.61766529e-03 -6.54475763e-02
   8.93317163e-03  6.92776963e-02  7.33902529e-02  6.56196401e-02
   2.07763538e-02 -4.80262041e-02 -3.49976830e-02  2.76703238e-02
  -7.03373626e-02 -3.50814760e-02  3.84972394e-02 -6.77213818e-03
  -2.31984369e-02 -7.99044594e-02 -4.30542231e-03 -2.21665651e-02
   2.09449455e-02 -7.73897469e-02  3.17415968e-02  6.02469817e-02
   5.87638691e-02  4.32893485e-02  1.14724264e-02  7.42286965e-02
   9.96027142e-03 -2.54165009e-02 -2.96980143e-03 -1.65850446e-02
  -7.65277669e-02  5.82891926e-02 -4.49325778e-02 -6.80106953e-02
  -3.62043716e-02 -5.51999211e-02  2.47357935e-02  3.20175141e-02
  -2.26841867e-03 -2.95528024e-03 -2.79211998e-03 -4.23848331e-02
  -1.26588345e-02 -1.76710859e-02 -3.96952443e-02 -2.35296823e-02
  -1.80550888e-02  4.42091897e-02  5.37431315e-02  5.07727787e-02
  -1.94110684e-02  9.16375965e-03 -6.05104305e-02 -7.19217509e-02
  -7.59465918e-02 -7.04198405e-02  4.84460518e-02  2.93667540e-02
   1.03579983e-02  5.96737936e-02 -1.40890926e-02  7.24845156e-02
  -1.91159658e-02  7.16195926e-02 -3.36566269e-02  4.14187312e-02
  -2.71826088e-02 -5.50088771e-02 -3.74152772e-02 -7.55670145e-02
  -2.09310800e-02  3.80611569e-02 -7.67553598e-02  2.13971511e-02
  -2.08165571e-02 -2.20999122e-04  4.42225710e-02 -3.65748554e-02
   5.64565286e-02  4.05802578e-03 -1.12261921e-02  5.57159409e-02
  -6.19223565e-02 -2.42403671e-02 -1.72431320e-02 -5.75079247e-02
  -6.64211810e-04  8.06195363e-02  5.40826842e-02 -8.32512230e-03
  -7.21241608e-02 -2.33040005e-03  5.90031072e-02  2.34789997e-02
  -5.34290522e-02 -2.89239287e-02  1.62627399e-02 -3.02713811e-02
  -6.11227006e-02  6.60467669e-02  2.22948194e-02 -6.51662052e-02]
 [-4.32765633e-02 -4.84446473e-02 -5.34428060e-02 -7.87063017e-02
  -6.88516349e-02 -4.72078063e-02 -4.53023091e-02 -4.60618958e-02
  -3.89018729e-02 -6.29749820e-02 -5.65090068e-02  6.52602091e-02
  -4.11203019e-02 -7.94266686e-02  7.23669007e-02  4.81955633e-02
  -8.00409168e-02  5.24801239e-02 -5.26946820e-02  7.91158527e-03
   4.94160280e-02  2.20730901e-04 -2.84838453e-02  9.89869237e-03
  -2.67195366e-02  3.85230705e-02 -4.39818688e-02 -7.37654790e-02
   1.03472695e-02  3.65860909e-02  2.61486918e-02 -1.53123960e-02
  -7.57448152e-02 -3.43901291e-02 -4.40040119e-02 -2.56134048e-02
   7.98159763e-02  3.55711207e-02  6.94489852e-02 -5.84106594e-02
   4.90344837e-02  5.99404648e-02 -2.47825347e-02  8.04197714e-02
  -8.66199285e-03 -4.24348637e-02  7.12375268e-02  4.05907631e-02
   5.81002012e-02 -2.92523131e-02 -1.90036893e-02 -4.85191569e-02
  -2.24518254e-02 -1.09940022e-03  3.41928825e-02  4.95466590e-03
   1.16820186e-02 -4.18015905e-02 -1.86804309e-02  6.96181878e-02
   3.26839909e-02  3.82464007e-02 -1.36069655e-02 -1.42114684e-02
  -1.93900093e-02 -3.88038270e-02 -4.47053164e-02 -8.00432712e-02
  -6.74724579e-05  3.97415385e-02 -6.69691116e-02  3.34189013e-02
  -2.22333223e-02  7.39424005e-02  3.41367200e-02  5.74600026e-02
  -5.55319004e-02 -3.87860537e-02 -4.44505140e-02  6.88169226e-02
   5.48790321e-02 -2.88353004e-02 -4.78891917e-02 -5.63729256e-02
   6.52921572e-02  7.71296695e-02 -7.85811394e-02 -3.01356465e-02
   7.44410828e-02 -3.03695053e-02 -4.52499762e-02  4.83401120e-03
  -5.72419688e-02  7.44139776e-02  3.68147865e-02  1.98768303e-02
   2.96814293e-02 -3.47590260e-02  6.65644333e-02 -5.59190921e-02
  -1.56423822e-02  2.98354402e-02 -1.79145783e-02 -3.42044234e-02
   1.24842823e-02  1.74535289e-02  1.32530183e-02  4.79443446e-02
   6.71869591e-02 -7.07000494e-03  6.52500317e-02 -5.81258237e-02
   3.61209065e-02 -3.20028961e-02  3.31207365e-03  1.92366019e-02
   7.38538578e-02 -6.42365515e-02 -7.05995113e-02 -7.68459737e-02
  -3.39467414e-02  2.43689045e-02  4.29946110e-02 -4.73864749e-02
   7.91422948e-02 -2.01815479e-02 -3.09673697e-03 -2.76174694e-02]
 [ 3.54139581e-02 -3.86131890e-02  4.50188294e-02 -8.01364258e-02
  -3.56285349e-02 -5.90877086e-02 -4.72331978e-02  7.87572339e-02
  -7.60510936e-02 -7.34968334e-02 -7.22609982e-02  5.94774112e-02
  -1.51017457e-02 -1.55699626e-02  3.26409936e-05 -2.05593407e-02
   1.59643441e-02  4.20972928e-02  1.46267191e-02 -6.49405047e-02
  -7.43224248e-02  6.69024959e-02  2.57106945e-02 -3.55654359e-02
   4.16378155e-02  5.32101318e-02  1.92370266e-02  2.19298452e-02
   1.81938782e-02  8.87209922e-03  2.37228349e-02  2.39882693e-02
  -6.29273504e-02 -3.15432213e-02 -4.03468311e-03  2.77677849e-02
  -4.38521877e-02 -6.43377677e-02  7.10558519e-02  8.08934942e-02
  -1.64250433e-02  5.49606457e-02 -6.02077469e-02  9.47132707e-04
  -5.44204563e-03 -5.35073727e-02  3.95284519e-02 -4.67405729e-02
   4.42094579e-02 -2.61541046e-02  7.94493482e-02 -2.48830914e-02
  -6.82967156e-03  4.44973931e-02 -1.02078021e-02 -5.48499525e-02
  -7.84639120e-02  4.92504239e-03  2.53154412e-02  7.36075267e-02
   4.53867018e-04 -5.85512072e-02 -4.31289151e-02  6.18147925e-02
   6.84842840e-02 -5.41420579e-02  5.95598668e-03  7.95742795e-02
  -1.19423494e-02 -5.09161390e-02 -7.14356005e-02  5.50597385e-02
  -6.10375330e-02  2.91845948e-03 -1.46774426e-02  7.50123635e-02
   4.34967503e-02  6.27028272e-02 -3.53205353e-02  3.95270959e-02
   4.23357561e-02  6.27886727e-02 -5.17531484e-03  4.60063741e-02
   4.26936671e-02 -2.70582475e-02  4.67699245e-02  4.07585427e-02
  -2.74497494e-02  3.74926925e-02  2.15937272e-02  4.08264548e-02
   8.04804489e-02 -2.47195475e-02 -7.23111033e-02  8.09887424e-02
  -1.99121647e-02 -7.13722482e-02  3.85878533e-02 -7.08951801e-03
  -3.70050929e-02  7.06227198e-02 -5.69941103e-02 -1.35132745e-02
   1.40512064e-02 -5.13754785e-03 -8.07019547e-02  8.14271718e-03
  -3.33540887e-03  7.57125020e-03  7.90652409e-02  2.15520486e-02
  -7.17762485e-02 -5.46278134e-02  6.21735081e-02  7.73931518e-02
  -7.81452581e-02 -6.01433292e-02 -2.95999646e-03  6.97957948e-02
  -3.52968276e-03 -1.77553222e-02 -7.64784962e-03 -4.69955802e-03
   6.66052476e-02 -4.93907705e-02  2.19414309e-02 -4.03091758e-02]
 [ 4.03389558e-02  5.95540479e-02  2.73350328e-02 -3.16589810e-02
  -5.60180470e-02 -7.67154992e-02  2.90027708e-02  7.06363544e-02
   1.71700493e-02 -4.03752550e-02  3.81462276e-02 -7.36249089e-02
  -6.59926832e-02  8.01705942e-02 -4.50517200e-02  3.80454361e-02
  -3.57646756e-02 -6.24497719e-02 -1.13507882e-02 -1.99071355e-02
   3.90818715e-02  2.25000903e-02  6.51149526e-02  7.66540691e-02
   5.27273789e-02 -5.87649159e-02 -2.19292454e-02  8.05024430e-02
  -1.88924931e-02 -6.18554875e-02 -7.94067308e-02  3.58858705e-03
   2.57600471e-02 -8.07110071e-02  4.13000584e-03 -1.34792179e-02
  -5.57772666e-02  7.17267469e-02  1.84500366e-02 -4.37068976e-02
  -4.66831401e-02  6.75643310e-02  6.82538375e-02  7.19398037e-02
  -5.09811342e-02  8.58578086e-03  6.78445324e-02  4.81339917e-02
  -7.04735965e-02 -1.46742910e-03  4.69105616e-02  7.38634542e-02
   5.19506633e-04 -1.82412788e-02 -2.39399076e-02 -6.73125386e-02
   3.98893803e-02  4.14038450e-03 -5.47275990e-02 -5.04948944e-02
   3.53102088e-02 -1.28273293e-02  4.77235392e-02  7.03729466e-02
  -3.72066759e-02 -5.86663485e-02 -6.29952848e-02 -7.49886855e-02
  -1.12362653e-02 -2.21405923e-02 -1.83902606e-02 -1.30882189e-02
   1.43666565e-02  3.05813178e-02  3.16692144e-02 -7.84049109e-02
   7.76944682e-02 -2.99571939e-02  8.44002515e-03  2.70388871e-02
  -7.37930015e-02  7.97031447e-02 -5.36548495e-02  6.28322437e-02
   3.55077088e-02 -7.52821416e-02 -3.05280797e-02 -4.13336605e-03
  -2.12151967e-02  5.88649884e-02  3.18902507e-02 -7.82319903e-02
   1.81793943e-02  7.79529437e-02 -7.37887621e-02  3.23392451e-03
   1.11371279e-03  5.18753305e-02 -6.59161210e-02  3.06008905e-02
   2.34556198e-02  8.66255164e-03 -1.27048939e-02  4.37429249e-02
   6.83910921e-02 -8.05704147e-02  7.74719343e-02 -4.95808497e-02
  -3.33574638e-02 -5.19451275e-02  9.57906246e-04  4.10825387e-02
  -2.19120085e-03 -1.71615630e-02  5.70435897e-02 -4.59722057e-02
   4.36838642e-02  5.98135516e-02  2.81627476e-03 -7.36866891e-03
   2.18562260e-02 -1.66905224e-02  3.25701833e-02 -5.53310327e-02
   5.07082269e-02  1.91720873e-02  4.72280905e-02  5.18047735e-02]
 [-5.25164381e-02 -4.60306853e-02 -5.11108749e-02 -7.78626874e-02
   8.73224437e-03 -4.98453975e-02  7.50553980e-02  2.92417333e-02
   6.88071772e-02  5.24905995e-02  6.27429262e-02  7.73165300e-02
  -3.62113714e-02 -3.17924730e-02  7.10735247e-02 -7.28265196e-03
  -2.72782594e-02  4.76183221e-02  3.74368578e-02  2.79638395e-02
  -6.86202943e-02  1.29152611e-02 -4.77408879e-02  6.23971447e-02
  -3.52860726e-02 -3.82076055e-02  3.29681635e-02 -4.41979542e-02
   6.61885962e-02 -6.72181323e-02 -4.13691103e-02 -1.83404461e-02
   7.14127496e-02 -3.36087644e-02  3.14281955e-02  1.37901306e-03
   5.77295646e-02 -7.22164810e-02  4.19232100e-02  7.15540126e-02
  -3.79619338e-02  4.21190858e-02 -4.86738235e-02  7.35841691e-04
  -4.35410142e-02 -5.49825765e-02  3.32623422e-02  2.30521634e-02
  -5.20394444e-02 -4.61532325e-02 -6.35035709e-02  4.88301739e-02
  -3.69359590e-02  3.34450454e-02 -6.80329129e-02  6.97573498e-02
   1.84191689e-02  2.07187086e-02  2.57919952e-02  5.38655594e-02
   2.13788971e-02  1.80582181e-02 -4.86146696e-02 -6.10831380e-03
   6.14802018e-02 -7.20590651e-02 -6.58072457e-02 -2.03471221e-02
   1.18575916e-02  3.40529308e-02 -4.20320854e-02 -5.77769428e-02
  -6.94345906e-02 -6.40963092e-02 -5.17181382e-02  8.02395567e-02
  -8.47528130e-03  6.01164177e-02 -3.43220383e-02  4.38775793e-02
   5.21630272e-02  3.91712934e-02  5.06354198e-02  2.84241289e-02
  -5.97124733e-02  2.48032808e-03 -5.15416563e-02 -3.21109779e-02
   3.45022902e-02 -5.76160476e-02 -3.01394761e-02 -7.65186548e-02
  -1.15430281e-02 -6.12098202e-02  7.46389106e-02 -3.64634655e-02
  -5.71013242e-03 -1.25540197e-02 -2.60389037e-02 -4.79296073e-02
   4.45969030e-02  5.51524088e-02 -5.44058532e-02 -3.77924740e-03
   3.95186096e-02  1.68022513e-03  2.56283358e-02 -7.06455559e-02
  -4.23919521e-02 -4.25638892e-02  1.63235962e-02 -6.29290491e-02
   7.34510347e-02  7.55153671e-02  7.11012110e-02  2.62502953e-02
  -7.24203438e-02  3.37707847e-02 -6.23888001e-02  5.99587336e-02
   7.36469552e-02  3.11897695e-03  2.30042636e-02  7.78033808e-02
  -3.67015600e-05 -2.61524804e-02 -5.43587655e-03 -8.02095234e-02]
 [-6.40797019e-02  3.60652357e-02 -3.50070596e-02 -4.67139259e-02
  -7.01175630e-03  4.57345620e-02 -2.50572748e-02 -1.56859532e-02
   6.71855360e-03 -6.35039583e-02  6.82549104e-02 -7.52570257e-02
   4.19808999e-02 -5.10238335e-02  3.37096527e-02 -4.38375100e-02
   9.55898315e-03 -3.01821753e-02  7.65703395e-02  5.74503317e-02
  -7.27253482e-02  4.62373272e-02 -4.88060974e-02  6.22853562e-02
  -3.31106782e-03 -7.47416392e-02 -4.74238917e-02  1.35756060e-02
  -1.31453276e-02 -4.37138975e-02  5.89609519e-02 -6.85616210e-02
  -7.07134902e-02  2.79140845e-02 -4.74642143e-02 -6.57000542e-02
   3.24456096e-02 -8.08115229e-02 -2.01350562e-02  2.01337412e-02
  -3.04594636e-04  6.07238635e-02  3.48340422e-02 -3.91200185e-03
  -2.46399902e-02  2.86200866e-02  6.31796494e-02  7.42983595e-02
  -6.02797791e-02 -7.74696916e-02 -4.91313115e-02  1.29915476e-02
  -1.24086738e-02  7.07949698e-03  6.45343289e-02  2.12131068e-02
  -3.72815169e-02 -5.62615544e-02  7.89566711e-02 -5.83543070e-02
  -7.81886280e-04 -4.04046103e-02  1.61702633e-02 -3.25177759e-02
   6.98133484e-02  1.19886994e-02 -3.89448218e-02  5.29966876e-02
   1.89808533e-02  6.75043538e-02  3.78478393e-02  3.54187563e-02
  -6.80055693e-02  3.27041745e-03  7.21256956e-02 -6.80300668e-02
   1.10668242e-02 -2.97352858e-02 -2.80253738e-02 -2.66889036e-02
   6.00516051e-03  5.39752021e-02 -3.20830718e-02  3.65559012e-02
  -2.84234323e-02  4.75349501e-02  2.52711177e-02 -2.59738900e-02
   6.99988082e-02  3.15931365e-02 -1.19758993e-02 -6.37167990e-02
  -1.82939172e-02  7.83426687e-02  7.87692145e-02 -5.60215265e-02
  -5.29331714e-03 -5.85408807e-02 -5.67150749e-02  5.56206033e-02
   5.88488951e-02  1.06648430e-02 -3.47859412e-03 -4.75814603e-02
   6.47522509e-04 -3.60765308e-03  1.37719810e-02  6.99311271e-02
  -7.07150996e-03 -6.98549449e-02  2.35740468e-02  5.72382659e-03
   2.62552202e-02 -4.77745347e-02 -5.00447378e-02 -4.83431965e-02
   4.05278131e-02  6.39280751e-02 -1.50239840e-02  6.04598448e-02
   2.56538615e-02 -2.62536965e-02 -6.24735951e-02 -3.95692736e-02
  -2.13134959e-02 -6.35378063e-02 -3.42657268e-02  7.00033233e-02]
 [ 1.50682852e-02 -5.67563623e-02  5.59881851e-02 -3.84088419e-02
  -6.18809536e-02  7.34854564e-02  7.20831007e-03 -5.67748696e-02
   4.72254232e-02 -1.63783580e-02 -6.85463473e-02 -1.25532597e-03
  -4.52782325e-02  4.45664600e-02  7.24288300e-02 -2.28599012e-02
  -6.89768121e-02 -6.41298816e-02 -5.96859604e-02  1.66303366e-02
   5.39436117e-02 -6.92128763e-02 -2.11027861e-02  7.03586116e-02
   7.06952885e-02  6.32637367e-02 -4.24441248e-02 -6.90469146e-02
   5.36269024e-02  5.84053248e-03 -4.47240733e-02  4.13385183e-02
   5.35910502e-02  3.36092710e-02  7.34923705e-02  3.07622105e-02
   3.49930972e-02 -7.64653385e-02 -6.66864216e-03  4.27931994e-02
   7.88964331e-04  2.44618282e-02 -6.94249049e-02  8.05451050e-02
  -3.93340439e-02  4.40378413e-02 -1.60467103e-02  6.99419156e-02
   1.55855119e-02  2.88005695e-02  4.87015173e-02  6.14334419e-02
  -7.03349411e-02  2.87148207e-02 -5.40047735e-02  2.56584659e-02
  -4.60852198e-02 -6.08400106e-02  4.58961651e-02 -6.84972852e-02
   1.98658854e-02 -3.47057320e-02  7.91618973e-03 -1.11689866e-02
  -7.37747252e-02  6.77154586e-02 -1.68147683e-02  3.97530273e-02
   5.78388199e-02 -1.41268224e-02  7.87476674e-02 -7.12675527e-02
  -3.19449380e-02 -6.21878728e-02 -4.50648703e-02  4.58604321e-02
   5.43665215e-02 -6.08168244e-02  7.94030353e-02  4.70264778e-02
  -2.83063799e-02  3.20010558e-02  5.34609035e-02  4.78753075e-02
   1.90677494e-03  4.78239879e-02 -5.21978624e-02 -2.59391367e-02
  -6.79453090e-02  3.13826576e-02  6.71601519e-02 -4.18463796e-02
   7.87177607e-02  6.30124584e-02  5.39533272e-02  6.14788458e-02
   5.47522828e-02  4.33862284e-02 -2.52836272e-02 -3.15458328e-02
   3.08934748e-02 -2.30721198e-02 -2.55328603e-02  4.39412221e-02
  -5.99883720e-02 -6.80522621e-03 -5.53700775e-02  3.66807878e-02
   2.55726427e-02  1.50465220e-03  6.27078936e-02  3.69502902e-02
   6.75444081e-02  4.82857600e-02 -6.42584041e-02 -4.70774658e-02
  -6.00135699e-02  6.76184967e-02  4.68622074e-02 -3.80221531e-02
   5.17446920e-02  1.70540214e-02  5.81452921e-02 -3.36167514e-02
   1.45061016e-02  2.32084766e-02 -4.84881364e-02 -5.05977347e-02]
 [ 2.91615725e-02  6.06070682e-02  1.24008432e-02  5.20163551e-02
  -8.06532577e-02 -3.71790603e-02  3.18177119e-02 -5.78712150e-02
  -4.39039543e-02  3.27825546e-07  2.72113085e-02  6.82555214e-02
   9.16026533e-03  9.91009176e-04 -1.78392306e-02 -6.12377599e-02
   7.35115334e-02 -6.67507425e-02  4.01039198e-02  3.04706469e-02
  -1.25296712e-02 -4.46328148e-02  2.02111304e-02  7.89323673e-02
  -1.00146458e-02  5.37999943e-02 -7.69887269e-02 -2.69025527e-02
   2.85581425e-02 -5.73300347e-02 -6.87329397e-02  4.86374125e-02
  -1.86543614e-02 -4.42828685e-02  7.27607384e-02  3.74671444e-02
   4.87527624e-02  2.85910591e-02 -5.65577596e-02  2.29162127e-02
   6.92406222e-02 -6.94479048e-03 -1.67120844e-02 -7.77045190e-02
  -2.56017596e-03 -1.16256252e-02  3.54569107e-02  4.38647345e-02
   6.06622770e-02 -1.87068470e-02  3.84773985e-02 -5.29877916e-02
   3.12633365e-02  6.65178671e-02  1.13959610e-02  9.86545533e-03
  -6.53446540e-02  7.75865987e-02 -6.54628873e-02  2.99737230e-02
   3.95018831e-02  2.69742608e-02  5.17350808e-02 -4.73978631e-02
   3.43503505e-02  1.18290409e-02  5.11137620e-02  1.68649107e-03
  -6.85359240e-02 -4.83851880e-03  2.58584619e-02 -3.92946713e-02
   4.47006598e-02 -4.18314300e-02 -3.41961682e-02 -7.12550208e-02
   3.12291905e-02 -3.84974703e-02 -1.83909535e-02  7.89747313e-02
   7.78625831e-02 -2.18550116e-03  7.12157786e-03  5.82702979e-02
  -2.66764127e-02 -2.41246447e-02  3.35461870e-02 -3.76669280e-02
  -7.93123990e-02  8.08834508e-02 -3.56643312e-02  3.53512466e-02
  -2.63022147e-02  4.16149795e-02 -6.75271004e-02  6.57515898e-02
  -1.10397935e-02  3.13618481e-02 -4.32942770e-02 -2.81297229e-02
  -3.05471644e-02 -5.27072139e-02 -4.28595915e-02 -5.15994951e-02
  -5.76589778e-02 -4.03948836e-02  3.15278471e-02 -1.08929724e-02
  -1.94406174e-02 -3.39792669e-02 -6.10564053e-02 -5.48679382e-02
  -2.74255201e-02 -4.72898781e-03  4.87539992e-02  5.74986413e-02
   1.61382332e-02  1.84856951e-02  4.57802787e-02 -5.11062518e-02
  -2.84017734e-02 -4.63699363e-02 -1.24716982e-02 -2.76026875e-03
  -3.16851288e-02  3.11155021e-02  5.10986075e-02  3.14918011e-02]
 [ 5.37043102e-02  2.93900929e-02  3.73066287e-03  7.93689676e-03
   6.62255427e-03 -6.53425381e-02 -6.55625910e-02  1.80298220e-02
   6.08488033e-03  7.12255463e-02  5.90238012e-02  1.51783153e-02
  -6.35367259e-02 -8.92555341e-03 -4.15606014e-02  4.76588011e-02
   8.49608630e-02 -7.22190067e-02  6.45560324e-02 -3.42196343e-03
   3.53812091e-02 -2.63826232e-02 -1.12601547e-02 -3.24304402e-02
   2.86865910e-03 -7.29469284e-02 -6.13532700e-02 -1.41595164e-02
  -3.63504477e-02  2.42378339e-02 -8.06683674e-02  3.43088694e-02
  -4.28334326e-02 -2.68485993e-02 -2.69246250e-02 -2.78542191e-02
   4.67490442e-02 -7.35263005e-02 -5.73700406e-02 -3.31507400e-02
   3.20812017e-02  6.28210604e-03  5.90337552e-02  7.07094697e-03
   6.12942129e-02  1.54644102e-02  3.73990536e-02 -5.20718433e-02
   5.30014709e-02  8.50073174e-02 -6.38995394e-02 -5.51949441e-03
  -4.03950438e-02  7.21018016e-02 -2.98948921e-02 -3.75796743e-02
   9.82622523e-03  1.44970156e-02  4.76026013e-02  1.33576989e-02
  -1.05221421e-02 -4.30072024e-02 -2.75727045e-02 -1.07273925e-02
   5.29680625e-02  6.36572987e-02 -4.46837991e-02 -3.99092771e-02
  -1.85821690e-02  5.32050952e-02  4.56281826e-02 -5.05903438e-02
   7.38094375e-02  5.71067818e-02  4.81046624e-02  2.79493146e-02
   6.91783652e-02 -2.43182667e-02 -1.58426501e-02  3.41146216e-02
  -5.89960162e-03  8.63813329e-03 -5.75760901e-02 -7.82044306e-02
  -7.54936086e-03  6.29895553e-02 -8.70567113e-02  4.26429063e-02
   3.82287279e-02 -4.88349795e-02  4.69671004e-02 -5.81331365e-02
   6.99912012e-02  2.52516586e-02  2.83124652e-02  1.97156519e-02
  -2.29828083e-03 -4.84111644e-02  5.28458357e-02 -7.11630806e-02
  -7.33056366e-02 -3.33175994e-02 -5.55718280e-02  7.84116983e-02
   4.89674583e-02  1.01211052e-02 -6.75490648e-02 -1.47189174e-04
   2.15336829e-02 -5.04963845e-03  2.30594371e-02 -1.15905907e-02
  -7.65511245e-02  1.60503462e-02 -3.59111615e-02 -4.79665175e-02
  -2.47334801e-02 -8.20775852e-02 -2.14279573e-02  3.95416580e-02
  -7.68574625e-02  4.09567216e-03  8.33343901e-03 -6.51091710e-02
   8.06888449e-04  3.67056392e-02 -2.29651406e-02  5.12642339e-02]
 [-6.18440518e-03 -1.93588715e-02 -9.17577520e-02  2.08043754e-02
   3.97191755e-02 -4.51513492e-02  3.46604548e-02 -1.49419215e-02
  -9.91736501e-02  2.53130198e-02  5.55110872e-02  6.61851466e-02
   3.46572772e-02 -2.33484954e-02  3.01763341e-02 -3.39604579e-02
   8.83357748e-02  1.95726976e-02  4.79207002e-02 -8.13211128e-03
  -3.96087654e-02 -9.50761661e-02  4.69410457e-02 -5.82863502e-02
   3.12866122e-02 -6.85655102e-02  4.41940501e-02  2.03753784e-02
  -9.16309431e-02 -3.79971303e-02 -1.65099557e-02 -5.61592989e-02
   2.13959161e-02 -1.54286940e-02 -1.47087630e-02  6.62064776e-02
  -7.53345788e-02  7.23003689e-03  2.65652314e-02  2.13018730e-02
  -1.54308705e-02  6.91737756e-02 -4.94413413e-02 -5.56641333e-02
  -3.93885560e-02 -6.92228004e-02 -9.19178594e-03  5.77404611e-02
   4.25898768e-02 -1.25061013e-02  7.37923086e-02 -8.52768347e-02
   8.20706189e-02  8.52374807e-02 -1.59194525e-02  8.50143805e-02
   2.25238018e-02  3.75145078e-02 -4.65410054e-02  2.77919620e-02
   6.00026026e-02  2.08754595e-02 -5.95484301e-02 -6.32499158e-02
   8.34272727e-02  1.42217558e-02  3.53643461e-03  1.67002007e-02
   4.12090272e-02 -2.73720287e-02 -1.60328448e-02 -5.80577962e-02
  -3.43321264e-02 -8.28667507e-02 -5.49533255e-02 -7.88394436e-02
   7.74473622e-02  3.71060744e-02 -2.85283979e-02  9.25765024e-04
  -3.28933857e-02 -5.99813927e-03 -6.82348832e-02  5.38437590e-02
   4.43915538e-02  2.43626386e-02 -4.36539389e-02 -3.20618972e-02
  -7.81043842e-02  8.92489776e-03  8.56725946e-02  7.57036656e-02
  -3.56140919e-02 -3.40240374e-02 -1.47140296e-02 -7.82313291e-03
   1.16860420e-02 -9.55711082e-02 -3.03164311e-02  2.26291101e-02
  -7.47256204e-02 -2.60721706e-02 -6.27403334e-02  8.48265141e-02
   4.16316837e-03 -1.79622527e-02  2.00677924e-02 -2.66758744e-02
   7.95139894e-02 -2.09254324e-02  1.18680308e-02  1.84922386e-02
   4.17653695e-02  1.07115591e-02  2.54511219e-02  2.74072448e-03
   9.28193033e-02 -6.02805726e-02  4.82760072e-02  2.01783798e-04
   6.71372190e-02  1.38446176e-03  2.47512646e-02 -2.51299608e-02
   4.81801443e-02  2.50927936e-02 -1.70041844e-02  2.60741394e-02]
 [ 1.06886029e-04 -8.03755447e-02 -2.67723296e-02 -9.63947400e-02
   7.13202283e-02 -8.36823508e-02  1.32488310e-02 -4.01964933e-02
  -8.86256844e-02 -3.18552107e-02  2.66415700e-02 -6.14819233e-04
   2.36823522e-02 -1.36973470e-01 -8.55676755e-02 -4.36313041e-02
   1.99803442e-01 -1.93454027e-02 -2.90874895e-02  6.42730817e-02
  -5.38037717e-02 -1.38554245e-01 -1.56914070e-02  8.14843550e-02
   1.07492285e-03 -3.10467202e-02  7.01990947e-02 -7.24512711e-02
  -6.70112967e-02 -3.73867936e-02  6.26299903e-02 -4.65722159e-02
   4.63604406e-02 -7.80573208e-03  1.87260747e-01  3.80146801e-02
  -1.70326054e-01 -1.32405505e-01  1.25009224e-01  7.07169101e-02
  -1.24378785e-01  2.25909054e-04  1.10502448e-02  1.73505425e-01
  -9.79760811e-02 -4.53804731e-02  1.92077179e-02 -3.11844721e-02
   7.36367516e-03 -5.38962111e-02  1.47067964e-01 -2.98312232e-02
   4.77080420e-02  8.31178874e-02  7.90489167e-02  1.26152942e-02
  -1.43667877e-01 -5.46532869e-02  1.09182522e-01  3.32013927e-02
  -4.37352955e-02 -2.30988115e-02  1.12001143e-01 -3.63317318e-02
  -7.58724064e-02 -1.22668557e-01 -5.09693362e-02  1.16641365e-01
   4.24490459e-02 -7.23604113e-02 -1.46703254e-02 -1.21534094e-02
   1.44750535e-01 -7.58644613e-03 -5.25841638e-02 -1.75410286e-01
   3.60939652e-02 -3.72211263e-02  7.61218667e-02  1.42250240e-01
  -1.68776093e-03  3.92307080e-02 -6.45957440e-02 -8.86688456e-02
   5.09573109e-02  1.69668823e-01 -7.18045456e-04  3.46842632e-02
  -9.89333494e-04  4.55238037e-02  2.05926120e-01  6.77910373e-02
  -7.56463930e-02 -2.03737989e-02 -2.15449214e-01  6.89319596e-02
   1.33442014e-01 -1.89431503e-01 -2.88846120e-02 -1.30244657e-01
   4.27584909e-02 -1.06736980e-01  1.58463895e-01  7.46557266e-02
  -7.94373304e-02  1.15321964e-01 -2.48507108e-03  1.34918705e-01
  -2.84974985e-02  5.49133644e-02 -5.93575388e-02  1.56561837e-01
   7.59342834e-02 -1.18675947e-01 -1.96462292e-02 -8.71899500e-02
   8.49258453e-02 -1.03098840e-01 -6.96063936e-02 -1.44242436e-01
   1.04802608e-01  3.05576939e-02 -5.96813262e-02  1.73977986e-02
  -1.63576901e-02  1.27538249e-01  5.95771894e-02  1.37814596e-01]
 [-3.26773711e-02 -5.89628853e-02  4.66867909e-02 -7.45115057e-02
   6.70346916e-02 -1.21848509e-01 -1.32677779e-02 -1.84296146e-02
  -1.31531298e-01 -3.79607864e-02  3.79205607e-02  1.22033753e-01
  -9.14520249e-02 -9.99024808e-02 -9.27484967e-03 -1.78310778e-02
   1.47808388e-01 -4.03159186e-02 -1.87357783e-01 -3.12593020e-02
  -9.51842293e-02 -1.14369996e-01 -4.28885855e-02  2.06378877e-01
   5.50862849e-02 -1.09189667e-01 -1.06627084e-01  7.18551129e-02
  -1.85682371e-01 -4.84222136e-02  7.31066689e-02  6.79838136e-02
   1.25043049e-01 -6.14512116e-02  6.80989623e-02 -4.01082896e-02
  -1.62312657e-01 -1.22499548e-01  1.14036351e-01  1.71121359e-01
  -1.01336271e-01  5.57594672e-02  1.07246712e-01  1.82854101e-01
  -2.12532952e-01 -4.88837808e-02  1.66473925e-01 -1.57981128e-01
  -2.19969861e-02  8.53279084e-02  1.42228991e-01 -6.66787624e-02
   1.71911061e-01  9.27960575e-02  1.55432165e-01 -8.94770399e-02
  -1.93652540e-01 -3.79886329e-02  1.99661762e-01  1.47041380e-02
   6.52841628e-02 -7.75766820e-02  1.14935584e-01  5.12357056e-02
   1.92189943e-02 -7.37821907e-02 -1.22107603e-01  1.42804116e-01
  -1.39661819e-01 -1.33373603e-01 -8.27243850e-02  8.94574746e-02
   9.79578570e-02 -4.38414216e-02 -6.57749102e-02 -1.06206723e-01
   6.37737885e-02 -1.54529989e-01  1.70818895e-01  1.21620335e-01
   3.25489379e-02 -9.85618010e-02 -1.20246619e-01 -1.47611201e-01
   1.88310876e-01  1.63150802e-01 -5.30284531e-02 -6.52055219e-02
   5.97374663e-02  1.73169542e-02  2.36275241e-01  1.82520106e-01
  -1.34035110e-01 -2.87289284e-02 -2.01433063e-01  1.04472890e-01
   1.88224524e-01 -1.84918597e-01  1.14181042e-02 -1.90275356e-01
  -1.03294849e-01 -7.13712871e-02  1.54176146e-01  8.48296508e-02
  -8.10672194e-02  1.07287280e-01 -1.05796941e-01  2.21702635e-01
   7.22130528e-03 -1.02679051e-01  1.39616122e-02  9.30359960e-02
   3.37892361e-02 -1.25526369e-01 -2.91818921e-02 -5.15433438e-02
   1.74914762e-01 -7.82173946e-02 -8.62908140e-02 -4.80966270e-02
   9.48102400e-02  1.55590428e-03 -1.63905591e-01 -4.35767733e-02
  -4.00716672e-03  3.21547948e-02  1.02210283e-01  1.16861418e-01]
 [-4.32049148e-02  3.75449806e-02  5.31679764e-02 -2.24513207e-02
  -8.92258734e-02 -2.29588211e-01  6.01523481e-02 -4.90065701e-02
  -1.34306327e-01  2.27273665e-02  1.38741583e-02  1.62179679e-01
  -1.88163698e-01  6.52070269e-02 -3.51122557e-03  8.33653146e-04
   2.28246912e-01 -6.33031083e-03 -1.71096042e-01 -3.87473591e-02
  -9.19842534e-03 -1.17629580e-01  1.59003019e-01  2.06248522e-01
  -9.95939448e-02 -4.15368937e-03  1.80611927e-02  1.09786920e-01
  -7.69762844e-02 -1.32375136e-02  9.76546034e-02 -1.31576329e-01
   1.09187029e-01  8.48728493e-02  6.24079593e-02 -7.44270906e-02
  -1.10844083e-01 -7.56435990e-02  8.07142034e-02  1.80100128e-01
  -1.04781456e-01  1.35293067e-01  1.10406369e-01  1.62620112e-01
  -5.33997603e-02  4.90380004e-02  3.62913460e-02 -9.54265520e-02
  -6.59567118e-02  1.31080717e-01  1.63078055e-01 -1.68575179e-02
   6.09262027e-02  1.07866868e-01  2.52013236e-01  8.14769194e-02
  -1.98519185e-01 -1.03904240e-01  2.17908025e-01  2.95881312e-02
   3.50053832e-02 -1.03936374e-01  1.29356518e-01  9.19469222e-02
  -6.65841028e-02 -7.97102526e-02 -1.38763011e-01  7.03499019e-02
   4.81103212e-02 -1.37539715e-01 -1.74716651e-01  1.22872844e-01
   6.87574297e-02 -1.16679989e-01 -2.74055749e-02 -1.04737885e-01
   1.42913729e-01 -1.61158785e-01  1.74412355e-01  1.48606747e-01
   4.89432439e-02 -4.64616306e-02 -2.03837529e-02 -4.31263968e-02
   2.06329778e-01 -5.45188896e-02  8.50264207e-02  2.60451417e-02
   3.37711945e-02 -4.57606427e-02  2.02589944e-01  9.68042687e-02
   1.78274568e-02 -6.44777482e-03 -1.84704870e-01  1.39923543e-01
   1.17988683e-01 -1.06568858e-01 -9.49150771e-02 -1.00558020e-01
   4.27290350e-02 -8.56938660e-02  5.96162714e-02  4.38346229e-02
  -2.81694010e-02  1.94010541e-01 -1.57709885e-02  2.24235550e-01
   3.96276303e-02 -3.31892632e-02  1.17739243e-02  2.15529084e-01
   7.16149360e-02 -1.38798937e-01 -5.13272770e-02 -4.62278798e-02
   3.17280203e-01 -8.19046646e-02 -1.56609252e-01 -4.77577709e-02
   8.47174153e-02 -1.14696980e-01 -1.36930689e-01  2.15010233e-02
   7.74037018e-02  1.15197562e-01 -4.24320959e-02  7.63333887e-02]
 [ 1.92959681e-02 -9.79196653e-02  5.52107431e-02  2.64050085e-02
  -1.24972261e-01 -1.19195707e-01  5.06717190e-02  2.21315399e-03
   4.31392081e-02 -2.91731935e-02 -3.40228640e-02  9.95204076e-02
  -1.05862664e-02 -2.34757569e-02  6.14189729e-02  4.37664352e-02
   2.12660044e-01 -1.43020719e-01 -1.42001927e-01  6.50121272e-03
  -5.12655117e-02 -1.20418824e-01  5.00337593e-02  2.95574903e-01
  -9.57668573e-02 -3.18011921e-03  1.17495740e-02  2.57000983e-01
  -1.90609559e-01  6.77674338e-02  7.11020902e-02 -1.58397555e-01
   8.39231759e-02 -5.28481156e-02  1.03913005e-02  2.11073104e-02
  -1.14500299e-01 -1.19926795e-01  1.42177895e-01  2.70635813e-01
  -5.02689295e-02  4.32108641e-02  8.17476865e-03  2.69723147e-01
  -9.36316140e-03  6.37779906e-02  1.67971641e-01 -1.67908162e-01
  -9.50282440e-02  7.05078319e-02  3.73317208e-03 -4.86506261e-02
   1.83857039e-01  8.05729777e-02  2.02213898e-01  1.77319810e-01
  -2.18474865e-01 -2.22665332e-02  2.63707727e-01  1.59900263e-02
  -8.86725932e-02 -9.58220661e-02  1.92375034e-02  9.97600034e-02
  -9.75088403e-03  7.08096987e-03 -1.95201755e-01  1.05482586e-01
  -5.32286949e-02 -6.25013933e-02 -1.37304336e-01 -5.74066453e-02
   7.79845417e-02 -1.52828619e-01  6.18418790e-02 -1.69825330e-01
   1.73002724e-02 -1.72243223e-01  2.13676125e-01  2.67358683e-02
  -5.42687066e-02 -1.16523542e-01  6.03130553e-04 -2.28516827e-03
   1.79823861e-01  8.87145400e-02 -4.11313549e-02  4.94773053e-02
  -1.91688295e-02 -4.55547683e-02  1.22248940e-01  1.57758757e-01
  -5.57912774e-02  1.42998081e-02 -1.97263405e-01  1.14684105e-01
   3.20243984e-01 -1.85116500e-01 -7.47442618e-02 -1.66189373e-01
   2.82531362e-02 -6.28669932e-02  2.29462013e-01  5.90970069e-02
  -1.18594645e-02  1.98401585e-01 -9.96098518e-02  1.38016850e-01
   2.03091046e-03 -8.13089535e-02  4.56373915e-02  1.65589303e-01
   6.12470973e-03  8.63125175e-02 -1.64659351e-01  1.27363220e-01
   3.80737215e-01 -4.14617620e-02  2.97216419e-03 -9.36591253e-02
   5.58228344e-02 -1.02975138e-01 -5.75415380e-02  6.34211153e-02
   7.97365531e-02  6.63711736e-03 -9.14423242e-02  1.61314100e-01]
 [-1.74999535e-02  2.55550835e-02 -7.74609894e-02  1.25137523e-01
   1.02340341e-01 -9.29218084e-02 -6.90451562e-02  2.44723745e-02
   5.80760352e-02 -6.89984709e-02 -1.66491091e-01 -1.50625466e-03
   2.55868584e-02  1.56381756e-01 -8.89906753e-03  1.91431493e-02
   3.14988866e-02 -1.04709566e-01 -1.99136600e-01 -3.27561609e-02
  -3.08587197e-02 -1.30006105e-01  3.22338343e-02  1.77742541e-01
   3.49184424e-02 -4.24168371e-02 -2.17738673e-01  3.50492090e-01
  -9.90032330e-02 -1.16370767e-02 -1.25471666e-01 -1.23583816e-01
   4.59378697e-02 -3.66437212e-02  1.12685241e-01  1.08632773e-01
  -1.04726188e-01 -7.82694370e-02  1.51357025e-01  2.27136225e-01
   1.23146199e-01  4.12378348e-02  6.04198733e-03  4.08125699e-01
  -1.47744477e-01  5.36121652e-02  1.61605135e-01  1.15877967e-02
  -2.61679031e-02  5.51505871e-02 -5.06988773e-03  2.87436992e-02
   1.47787705e-01 -1.12609155e-02  1.61644258e-02  2.40949064e-01
  -1.98722214e-01 -1.09259866e-01  1.09603100e-01  1.19153950e-02
   1.34486761e-02  2.31921934e-02  1.35053173e-01  1.30887762e-01
   6.70396015e-02  1.97030231e-02 -1.50986895e-01  1.58433333e-01
   1.65185891e-02 -7.19019845e-02 -1.00401513e-01  1.90123692e-02
   1.86418131e-01 -1.10601030e-01 -3.81957851e-02 -1.96307391e-01
   1.39903411e-01  1.31145993e-03  7.68512487e-02  2.21541822e-02
  -1.48692727e-01 -7.69782588e-02  2.41856836e-02 -4.17944863e-02
   8.28763321e-02  1.78341374e-01  4.31962200e-02 -1.81580126e-01
  -7.86884129e-03  7.22593367e-02 -3.45734414e-03  2.55655289e-01
  -1.58863261e-01 -1.90067992e-01 -1.68429062e-01  2.24253058e-01
   2.15133682e-01  1.92021262e-02 -6.70565665e-02 -6.19160458e-02
  -7.93609768e-02 -7.56286159e-02  1.62302539e-01 -6.75088763e-02
   5.39591489e-03  1.28125921e-01 -3.36918421e-02  2.32784361e-01
   4.89500910e-02 -1.45115569e-01 -1.81712106e-01  1.23919910e-02
   7.53542036e-03  1.82906002e-01 -1.28367394e-01  3.71658206e-02
   4.45435852e-01 -1.00565970e-01 -2.67225057e-02  1.33350247e-03
  -4.27284725e-02  1.27514213e-01 -8.61125886e-02 -4.13735630e-03
   1.16965026e-01  1.07044965e-01  4.06228825e-02  1.95620179e-01]
 [-5.99333495e-02  5.15794121e-02  4.66412343e-02  1.44157633e-01
  -5.93387336e-02 -1.70162618e-01 -2.53948998e-02  3.23265716e-02
  -1.53625324e-01 -2.09477334e-03 -6.04200475e-02 -3.88361551e-02
  -1.04721166e-01  9.77344364e-02 -4.15197089e-02  6.94809332e-02
   2.16314808e-01  7.97979683e-02 -1.59945458e-01 -6.53367713e-02
  -5.80492914e-02 -1.19825713e-01  8.98547471e-02  6.28281161e-02
  -1.06436573e-01  6.46535158e-02 -2.16652945e-01  2.61000842e-01
   5.40607832e-02  4.47388515e-02 -1.11736201e-01  1.38367375e-03
   1.86933592e-01  1.88092783e-01  1.37075797e-01  7.07021207e-02
  -9.81613845e-02 -2.89055258e-02 -2.77139526e-02 -6.24105334e-03
   1.61258578e-01 -2.42155239e-01 -2.11203113e-01  3.83829743e-01
   1.11413993e-01  7.39286765e-02  1.21238865e-01  2.21304391e-02
  -1.02050878e-01  1.13592722e-01  7.30050132e-02  3.09250187e-02
   2.23688960e-01  1.02841623e-01 -4.58733663e-02  7.86218867e-02
  -1.92677036e-01  1.06360130e-02  9.17738229e-02 -5.18894196e-02
   1.05108693e-02  2.37879227e-03  1.18307993e-01  2.74008691e-01
  -1.07144542e-01 -2.25390494e-02  5.13620712e-02 -1.71810947e-02
  -6.78732172e-02 -1.03613496e-01 -9.90137905e-02  6.15307465e-02
   3.57934356e-01 -6.33229036e-04  1.24376873e-03 -1.48376718e-03
   5.78172281e-02  2.32719425e-02 -7.78274536e-02  3.11056852e-01
  -6.76710978e-02 -7.69917890e-02  1.60284683e-01 -8.40101689e-02
   3.25347781e-02  1.17347196e-01  1.31386295e-01 -6.43140450e-02
   2.58862469e-02 -7.35085132e-03 -4.01121974e-02  2.28831545e-01
  -8.91723335e-02 -7.00846761e-02 -2.07660004e-01  3.22730660e-01
  -1.38088509e-01  4.81156632e-02 -5.90473041e-03  1.73240602e-02
   2.24081308e-01  2.00446472e-02  1.34169102e-01 -7.07414672e-02
   4.99134324e-02  3.09798419e-01 -2.25712597e-01  2.00395182e-01
   4.65569757e-02 -2.01817617e-01  4.56942953e-02  9.39913094e-03
   8.97634774e-03  3.78310792e-02 -1.00478284e-01  3.17213237e-02
   5.40632069e-01 -4.63989936e-02 -1.44196317e-01 -6.46678731e-02
   5.16219996e-02 -4.59771827e-02  2.74500046e-02  1.50898188e-01
   1.30467325e-01  2.05358773e-01  6.24849796e-02  1.73448145e-01]
 [-1.17034972e-01  1.53695308e-02 -1.28392145e-01  1.90739930e-01
  -1.65371306e-03 -2.55407363e-01  9.33774039e-02  3.18183601e-02
  -1.47758842e-01  9.42672417e-02  1.48929834e-01  2.87626266e-01
  -1.76710531e-01 -1.97857879e-02 -9.65640321e-03  5.56291491e-02
   4.62567389e-01 -5.78541681e-03 -1.75516441e-01  8.59458186e-03
  -1.24571256e-01 -1.44466057e-01 -1.05688483e-01  2.17479944e-01
  -1.30485207e-01 -4.45434749e-02 -4.21889126e-01  1.66630626e-01
  -1.50213227e-01 -4.74120192e-02  3.19109038e-02 -1.07796319e-01
   3.04950804e-01  1.30975246e-01  2.51597792e-01  1.55323327e-01
  -2.04395592e-01 -2.82759100e-01  2.03073472e-01  6.36040941e-02
  -1.99897047e-02 -1.93964317e-01 -3.87167819e-02  3.50733310e-01
  -4.54479791e-02 -2.56635161e-04  2.85965651e-01 -2.66622335e-01
  -7.92937353e-02  2.14639246e-01  1.67799637e-01  1.35999937e-02
   3.22453409e-01  6.84058070e-02  3.80096644e-01  1.94456857e-02
  -3.64549398e-01 -1.72328532e-01  3.35051596e-01 -8.57577100e-02
   1.85068548e-02 -1.30516469e-01  1.63841262e-01  3.41568410e-01
  -1.61379158e-01 -1.61482796e-01 -1.15024239e-01  1.81259125e-01
  -2.58357488e-02 -1.06468186e-01 -1.13329791e-01  1.64137557e-02
   4.28903997e-01  5.52765615e-02  5.81621304e-02 -3.71155262e-01
   9.87271667e-02 -8.72527584e-02  8.16643909e-02  1.47243977e-01
  -9.52027217e-02 -1.14592873e-01  9.76259187e-02 -8.90666842e-02
   1.22824878e-01 -3.47000770e-02  1.22271359e-01 -4.27949801e-02
  -9.30031296e-03  9.49294046e-02  6.91241696e-02  2.35462815e-01
  -1.87115058e-01 -1.37508571e-01 -3.12624633e-01  4.12739515e-01
   8.44824836e-02 -2.03292519e-01 -1.58816129e-01 -1.16475098e-01
   2.52756178e-01 -1.46796450e-01  3.67480010e-01 -1.02345673e-02
   7.67470803e-03  3.96750569e-01 -1.88558340e-01  2.55904824e-01
  -2.23912559e-02 -2.57054776e-01  9.36554521e-02  8.09321553e-02
   5.43421134e-02  6.73221424e-02 -6.32844940e-02  1.62434667e-01
   6.93278134e-01 -1.44496068e-01 -2.68037349e-01  4.51264493e-02
  -9.16681141e-02  1.29747823e-01 -1.86852217e-01  1.23688340e-01
   3.43240350e-01  2.60568261e-01  2.67473996e-01  3.76980126e-01]
 [ 1.72608029e-02 -1.55985191e-01 -1.84018970e-01  2.35218316e-01
  -1.13139421e-01 -1.30348653e-01  5.91644458e-03  1.10482819e-01
  -7.80933574e-02 -1.01626627e-01  1.28398001e-01  1.60186872e-01
  -1.42170209e-02 -5.13120070e-02  2.94807870e-02 -4.95132357e-02
   3.81484866e-01 -9.69356205e-03 -8.68912712e-02 -1.08794726e-01
  -8.24320540e-02 -2.03930482e-01 -2.24022325e-02  2.09966630e-01
  -3.74509506e-02  5.91333359e-02 -1.60514534e-01  2.27789953e-01
   8.41619354e-03 -2.12634094e-02  2.60319829e-01 -1.09839760e-01
   3.62644866e-02  1.18503794e-02  2.36042440e-01  7.01990575e-02
   5.75705878e-02 -1.55407578e-01  6.94456026e-02  1.78479791e-01
   1.35815460e-02 -2.79902399e-01 -4.18044031e-02  5.88649690e-01
   7.23411441e-02 -1.33870527e-01  1.70708463e-01 -1.09310120e-01
  -1.69429094e-01  2.17124239e-01 -9.47007723e-03 -2.07961979e-03
   1.47866875e-01 -4.00474441e-04  1.04187556e-01  2.56739091e-02
  -5.25188267e-01 -7.84273893e-02  5.53268433e-01  4.69343830e-03
   1.37001038e-01 -3.91465873e-02  1.45999655e-01  1.84911683e-01
  -1.88550904e-01  4.47095744e-02  1.92243606e-02  6.49861842e-02
  -1.41515687e-01 -1.11876288e-02 -1.73936179e-03 -3.23051840e-01
   2.41713777e-01 -1.07700825e-01  7.83018693e-02 -1.90724239e-01
   2.15161387e-02 -7.34976158e-02  2.13617802e-01 -1.48906931e-01
  -1.10970372e-02  3.60377952e-02 -1.29721100e-02 -3.69342254e-03
   1.12200394e-01  2.85438844e-03  1.14144482e-01 -1.83184575e-02
   1.93794388e-02  4.08569314e-02  1.52430400e-01  6.58652186e-02
  -7.54135549e-02  6.79348335e-02 -3.21419865e-01  4.33645606e-01
   2.75537312e-01 -4.43937033e-01 -1.70374326e-02  1.27798632e-01
   1.59853861e-01  9.89321694e-02  7.44875848e-01 -2.47888923e-01
  -7.60532171e-03  1.69226915e-01 -1.05171524e-01  2.58893907e-01
  -1.76937640e-01 -1.16601557e-01 -1.72753595e-02  1.61028981e-01
   1.43657491e-01 -2.90012006e-02 -8.10497329e-02  2.89545745e-01
   4.32325661e-01 -2.11712252e-02 -3.70713681e-01 -7.44639263e-02
  -1.01090357e-01  6.19694926e-02 -6.21196739e-02  1.27327144e-01
   3.64840537e-01  2.35696554e-01  1.48776323e-01  2.68595427e-01]
 [-9.62998644e-02 -1.58839285e-01 -3.02129567e-01 -2.19255179e-01
   1.07169159e-01  1.05919152e-01 -2.46556513e-02  2.16863632e-01
  -9.61477831e-02  3.18672478e-01 -3.68828714e-01 -1.35212034e-01
   1.49346471e-01  3.48722152e-02  2.45538995e-01 -2.78076623e-02
   3.09364423e-02 -1.25034899e-01  2.72719860e-02  8.54557231e-02
  -6.42054831e-04 -6.97208941e-02 -4.01956141e-02 -1.56426892e-01
  -6.08967207e-02  2.52708048e-01  4.87145126e-01  4.50634658e-02
   8.33083615e-02  2.72557884e-03 -2.22424209e-01  6.22585602e-02
  -1.37826115e-01 -3.05729121e-01 -9.42540392e-02  2.72188783e-02
   1.87729999e-01  2.04614550e-01  1.64080523e-02  9.02298167e-02
   2.04972386e-01 -1.01678446e-01 -1.60983488e-01  6.44549727e-01
  -8.60055164e-02 -7.35120699e-02 -1.46440238e-01  4.40879285e-01
  -1.00078084e-01  1.17010742e-01 -8.80360305e-02  1.85467377e-02
  -2.16890603e-01 -9.87737179e-02 -1.22963153e-01  2.19409257e-01
  -4.02885258e-01 -7.48949423e-02  3.71947050e-01 -1.45029113e-01
   5.36309779e-02 -1.32661760e-01 -2.73919523e-01 -1.24938190e-01
  -1.99306712e-01  3.07959020e-01  1.95161387e-01  3.47407572e-02
  -3.47484559e-01  5.43286130e-02 -5.83202280e-02 -9.14881453e-02
  -3.73970091e-01  1.35297906e-02 -5.36962263e-02 -1.70119088e-02
  -6.92380816e-02  1.34235412e-01 -1.46613628e-01 -3.42573941e-01
  -3.71903181e-02  3.31106067e-01 -1.36218846e-01 -2.88731623e-02
  -1.21965595e-01  4.12015021e-01  3.11912358e-01 -3.32819253e-01
  -7.46882558e-02  4.89433818e-02 -1.80091083e-01  2.93302685e-02
  -1.13965562e-02  1.03219278e-01 -1.44177824e-01  5.85691854e-02
   1.62308618e-01 -3.46107423e-01  3.09411675e-01  2.26883948e-01
  -2.37575043e-02  9.16404799e-02  3.21886778e-01 -2.39473030e-01
  -3.12815756e-02 -3.06837440e-01  2.86031634e-01 -1.53192654e-01
   2.09207267e-01  2.73451716e-01  1.19362235e-01 -2.63117671e-01
   2.16323927e-01 -6.42515719e-02 -1.17954992e-01 -3.12213391e-01
  -9.30031091e-02  5.50435670e-02 -4.16001976e-01 -1.12976357e-01
   5.17912116e-03 -6.10327683e-02 -2.07535788e-01  1.04041554e-01
   3.86538923e-01 -2.90991277e-01 -1.63357198e-01 -1.07387163e-01]
 [-1.23158284e-01  4.85936925e-02 -1.55938566e-01  1.36024207e-02
   2.46658828e-02 -2.42292240e-01  1.64831430e-02  9.71441790e-02
  -5.24202228e-01  2.15079084e-01  1.84953868e-01  2.64798015e-01
  -8.72958973e-02 -2.94085778e-02  7.39730299e-02 -8.90573114e-03
   1.72084605e-04 -1.69924110e-01 -3.83404136e-01  2.75282897e-02
   1.93360839e-02 -1.71462260e-02  3.14090401e-02  1.01011276e-01
  -4.01029028e-02 -1.00014247e-01  1.26059547e-01 -2.27706060e-02
  -2.70342529e-01  1.47296339e-02  1.40962273e-01  3.01874280e-02
   4.93729562e-02 -1.41402155e-01 -1.29354924e-01  9.72797424e-02
  -2.79418409e-01  1.82562955e-02  1.06257223e-01  7.46531844e-01
  -2.45596975e-01  4.21228521e-02 -3.45464706e-01  4.63738680e-01
   8.64236280e-02  9.14264172e-02  1.62803590e-01  1.45325363e-01
  -1.22235611e-01  9.94205102e-02  3.05331767e-01  2.46927384e-02
   5.69352705e-04 -6.07419722e-02  6.40195668e-01 -1.59107730e-01
  -5.05875528e-01 -1.25002101e-01  5.36685109e-01 -1.42727137e-01
  -1.09654918e-01 -1.06410854e-01 -1.64030701e-01  5.35597801e-01
   4.01799977e-02 -4.63801295e-01 -4.71337944e-01  3.78756642e-01
  -2.09525943e-01 -3.51927988e-02  3.23359109e-02  4.49277848e-01
  -1.47613958e-01 -5.71134388e-02 -1.83060318e-02 -4.45658028e-01
  -1.51290506e-01 -4.86171991e-01 -2.93557942e-01 -1.57546401e-01
   1.20261885e-01  3.00953388e-01 -2.90531605e-01  7.14345798e-02
  -1.39303654e-01  3.61185968e-01 -4.24863070e-01 -2.89383233e-01
  -4.58699353e-02 -7.87691155e-04 -8.24916288e-02  4.57418203e-01
  -7.73790628e-02 -1.12698458e-01 -7.09872469e-02  7.33128116e-02
   1.09752491e-01 -1.79119259e-01 -3.64974707e-01 -3.11518729e-01
   3.86040546e-02 -2.20532328e-01  2.16249377e-01  2.30858028e-01
  -1.92441214e-02  1.81867152e-01  2.44732767e-01 -1.14040993e-01
   2.94968039e-01  1.50857821e-01  3.73006612e-01 -1.01883924e-02
   1.47574812e-01 -1.69733793e-01 -9.18736234e-02 -1.99297555e-02
   4.87973213e-01 -2.98392713e-01 -2.36784086e-01 -1.75186753e-01
  -4.10181321e-02 -9.85631123e-02 -4.13710833e-01  2.01510474e-01
   4.67030220e-02  5.75964078e-02 -8.72411281e-02  1.14463665e-01]
 [-1.62143156e-01  1.13125108e-01  9.14213713e-03  2.41035335e-02
  -1.71758354e-01  4.54520732e-02 -2.25291196e-02  4.31143865e-03
  -4.13923800e-01 -1.57985687e-01  2.46505573e-01  1.73923358e-01
   3.62470336e-02  4.16781045e-02 -1.50877282e-01 -9.90701094e-03
   1.97922036e-01 -7.63113946e-02 -9.87827498e-03  8.15730840e-02
  -1.46373853e-01 -1.19696386e-01  3.89655352e-01  2.42859982e-02
  -1.09187275e-01 -7.87832290e-02 -3.38925838e-01 -1.24152035e-01
  -3.38605940e-02  3.17786261e-02  2.78091162e-01 -4.72488289e-04
   2.44950145e-01  2.62937486e-01  3.60689938e-01  2.82636762e-01
  -1.39230996e-01  9.24166292e-02 -1.99632078e-01  4.11127895e-01
  -1.58307582e-01 -7.51041621e-02 -3.76174182e-01  3.02747518e-01
   7.83578604e-02  1.89910252e-02  1.84392650e-03 -1.66799620e-01
  -1.54733792e-01  2.58205682e-01  1.85364470e-01 -5.82685955e-02
   2.73629308e-01  3.84568930e-01  4.05182898e-01 -2.53912419e-01
  -3.81314367e-01 -1.15006760e-01  3.91244113e-01  1.08056650e-01
  -5.49880043e-02 -9.51482579e-02  1.38001159e-01  5.61168551e-01
   1.62428871e-01 -2.17313841e-01 -2.49981835e-01  4.39120084e-01
  -4.42722999e-02  8.88581723e-02 -2.48826835e-02  3.42220813e-01
   4.35663432e-01 -3.25617865e-02  4.84712236e-02 -1.23817921e-01
  -4.63914603e-01 -2.02024817e-01 -1.30634531e-01  3.47706050e-01
   4.10158746e-03  1.12350643e-01  2.48090014e-01 -5.19544370e-02
   9.86136720e-02 -5.17147928e-02 -1.70049652e-01 -2.54791617e-01
  -1.51738375e-01 -9.44152698e-02  1.07618853e-01  1.84893489e-01
  -8.30369592e-02  1.76894754e-01 -1.48150539e-02  3.39752078e-01
   5.37070967e-02 -2.36109450e-01  1.00541476e-03 -2.07617864e-01
  -1.33203909e-01 -1.09449640e-01  5.27114987e-01  1.04719393e-01
   5.35276495e-02  3.72439027e-01 -2.78848350e-01  4.18930016e-02
  -7.34762698e-02 -2.35245690e-01  2.93757826e-01  2.12582693e-01
   2.26217061e-01 -2.73967624e-01 -1.59751683e-01  1.39739513e-01
   4.75828409e-01 -4.14859541e-02 -1.55140385e-01 -3.24887373e-02
  -3.92906107e-02 -1.72194362e-01  2.48177648e-02 -9.28924903e-02
  -6.40986636e-02  4.17510867e-01 -6.86720014e-02  2.36973818e-02]
 [-1.52815267e-01  1.14441916e-01 -4.65276279e-02  1.93431854e-01
  -1.95523068e-01 -3.26861888e-02 -7.76729360e-02 -1.65805891e-01
  -1.05153240e-01 -1.88245535e-01  3.22833508e-01  2.37898707e-01
  -1.52542472e-01 -1.29977494e-01 -8.70358869e-02  1.32718757e-01
   4.57470030e-01 -2.36764267e-01 -3.51552106e-02  1.85924638e-02
  -1.51030952e-02 -1.12591185e-01 -5.61253168e-02  3.61491680e-01
  -6.65638968e-02 -1.25599265e-01 -5.05063832e-01  5.24923168e-02
  -8.15228280e-03 -3.62208113e-02  3.29897016e-01  2.76145525e-02
   2.31090680e-01  1.90735713e-01  3.48002642e-01  1.84223980e-01
  -1.28468186e-01 -6.07371740e-02 -3.54606628e-01  2.64511973e-01
  -1.51425391e-01 -2.00118810e-01 -1.18663065e-01  1.50595829e-01
   1.18527144e-01  2.23342478e-02  1.97910041e-01 -3.76785308e-01
  -1.74817950e-01  1.69441774e-01 -5.11752116e-03 -1.35603607e-01
   5.14518321e-01  3.50157261e-01  5.56516945e-01  1.07712336e-02
  -3.34412992e-01 -1.37873903e-01  3.29594553e-01  2.64555842e-01
  -1.14095919e-01 -7.63018355e-02  1.84420303e-01  3.09648305e-01
   3.57071042e-01 -4.65713032e-02 -2.47097626e-01  3.59401673e-01
   2.07190565e-03 -5.16734198e-02 -1.96174923e-02 -1.17773652e-01
   6.02939844e-01 -1.42811742e-02  1.73336044e-02 -2.27206215e-01
  -3.20391715e-01 -7.90158287e-02  1.08863965e-01  3.90047848e-01
  -1.10698733e-02 -1.08750224e-01  3.28828424e-01  1.45911202e-01
   4.06917511e-03 -1.55039072e-01  3.72385494e-02  1.30742610e-01
  -6.14700802e-02 -8.20678249e-02  3.73085439e-01  1.70209602e-01
  -1.06310189e-01  1.04014739e-01 -3.76637489e-01  5.96328914e-01
   1.81546643e-01 -2.10983753e-01  1.17795154e-01 -2.71998554e-01
   3.75514664e-02 -1.19150355e-01  4.83201027e-01  2.87137717e-01
   1.31382346e-02  3.74423146e-01 -3.87690425e-01  2.86001563e-01
  -2.07992028e-02 -5.69562912e-01  4.18354906e-02  2.21323192e-01
   1.44721374e-01 -3.17855090e-01 -1.52680457e-01  2.41006106e-01
   6.30366087e-01 -6.06338754e-02  3.06255147e-02 -9.71953385e-03
   7.21651837e-02 -1.43486172e-01 -7.15238526e-02 -1.06642470e-01
  -4.09795977e-02  4.08780545e-01  2.02707928e-02  2.24210858e-01]
 [ 5.94178680e-03  4.41825464e-02 -1.04152560e-01  2.37929925e-01
   2.74607211e-01 -3.35287780e-01 -8.05987120e-02 -1.76986501e-01
   1.17269658e-01  6.52795658e-02 -1.31324008e-01  2.12049812e-01
  -1.58979312e-01  5.16719790e-03  4.57948558e-02  1.54324979e-01
   4.47318554e-01 -2.13031963e-01 -2.82451451e-01 -2.42366605e-02
  -1.19019769e-01 -1.41148910e-01 -1.46968767e-01  2.36738443e-01
   1.41398171e-02  6.75892532e-02 -2.31515467e-01  1.00593947e-01
  -9.93873104e-02 -1.23992711e-02  2.64572203e-01 -5.11644036e-02
   5.42022921e-02 -1.11015059e-01  3.76165174e-02 -2.89141964e-02
  -4.46239412e-02 -1.80507123e-01  1.63573131e-01  2.29047850e-01
   6.59067482e-02 -9.21277478e-02  2.98494905e-01  4.69700277e-01
  -1.10069945e-01  6.61117360e-02  1.10164911e-01 -1.99049726e-01
  -8.56686458e-02 -4.83758096e-03  4.79120016e-02 -1.91755936e-01
   3.15196395e-01 -8.26220736e-02  5.68024874e-01  1.87284842e-01
  -2.29211867e-01 -2.52624471e-02  2.44207680e-01 -3.85598242e-02
  -1.41279906e-01 -9.11437571e-02  1.14668019e-01 -1.03512686e-02
   1.64853483e-01  1.03279419e-01 -1.88020810e-01  4.78112012e-01
  -3.75567935e-02 -1.41540632e-01  4.62594070e-02 -7.04634860e-02
   1.83285788e-01  4.80450727e-02 -9.05682798e-03 -3.64599347e-01
  -3.99471149e-02 -1.00441962e-01  1.68986335e-01 -2.93685924e-02
  -3.49508002e-02 -9.49158967e-02 -5.09362966e-02 -7.74237290e-02
   1.35626718e-01  9.90547314e-02 -1.97357894e-03  1.61077723e-01
   1.99811794e-02  6.23614527e-02  1.87952250e-01  1.55441165e-01
  -7.70902708e-02 -7.65356049e-02 -3.22323173e-01  1.14550903e-01
   1.24080487e-01 -1.35862514e-01  1.88295394e-01 -1.56204998e-01
  -5.00225201e-02 -2.03402922e-01  3.34922165e-01  2.57358223e-01
  -6.89273700e-02  1.99047774e-01 -6.73889965e-02  2.22878024e-01
   3.32566321e-01 -3.05484623e-01 -2.41387531e-01  2.27597490e-01
   1.38518631e-01 -2.52472721e-02 -1.08747818e-01  1.05149470e-01
   3.56823117e-01 -1.28776282e-01 -1.17285535e-01 -1.72080714e-02
  -4.26187813e-02  1.01262160e-01 -2.58869201e-01 -1.25173211e-01
  -1.74740534e-02  3.11803003e-03 -7.39974007e-02  2.20286489e-01]
 [-7.73389488e-02  8.84336457e-02 -2.08252609e-01  2.95461804e-01
   2.36965120e-01 -3.07523996e-01 -6.75429702e-02 -1.89129025e-01
   8.30515400e-02  5.17960787e-02  3.26802693e-02  3.44025493e-01
  -8.37948173e-02 -4.66484204e-02  7.34730288e-02  1.09458148e-01
   1.29795671e-01 -1.93500280e-01 -2.46627703e-01  4.61486429e-02
  -4.73367907e-02 -1.64945811e-01 -2.89952327e-02  3.65247428e-01
   4.16538976e-02 -7.16808736e-02 -3.56476754e-01  5.52653074e-02
  -2.80124545e-01  5.93867227e-02  3.46791148e-01 -1.23137787e-01
   4.39907573e-02 -1.18130431e-01 -3.65421437e-02 -4.90867458e-02
  -6.40681162e-02 -1.06661379e-01  3.02082717e-01  1.82211801e-01
